booster[0]:
0:[Col_27=b] yes=2,no=1
	1:[Col_12=f] yes=4,no=3
		3:[Col_7<14] yes=7,no=8,missing=7
			7:[Col_7<2] yes=15,no=16,missing=15
				15:leaf=0.242017
				16:leaf=0.339568
			8:[Col_24=b] yes=18,no=17
				17:leaf=0.614141
				18:leaf=0.413851
		4:[Col_28=b] yes=10,no=9
			9:[Col_1<6] yes=19,no=20,missing=19
				19:leaf=0.343599
				20:leaf=0.436276
			10:[Col_7<17] yes=21,no=22,missing=21
				21:leaf=0.59699
				22:leaf=0.907692
	2:[Col_1<14] yes=5,no=6,missing=5
		5:[Col_17=a] yes=12,no=11
			11:[Col_17=f] yes=24,no=23
				23:leaf=0.319503
				24:leaf=0.245712
			12:[Col_1<7] yes=25,no=26,missing=25
				25:leaf=0.188432
				26:leaf=0.256993
		6:[Col_7<15] yes=13,no=14,missing=13
			13:[Col_7<7] yes=27,no=28,missing=27
				27:leaf=0.342278
				28:leaf=0.278226
			14:[Col_14<43] yes=29,no=30,missing=29
				29:leaf=0.31086
				30:leaf=0.425986
booster[1]:
0:[Col_11=d] yes=2,no=1
	1:[Col_15=b] yes=4,no=3
		3:[Col_28=f] yes=8,no=7
			7:[Col_11=e] yes=16,no=15
				15:leaf=0.293781
				16:leaf=0.365887
			8:[Col_4=a] yes=18,no=17
				17:leaf=0.248007
				18:leaf=0.129343
		4:[Col_1<7] yes=9,no=10,missing=9
			9:[Col_16<10] yes=19,no=20,missing=19
				19:leaf=0.158011
				20:leaf=0.234717
			10:[Col_7<3] yes=21,no=22,missing=21
				21:leaf=0.203906
				22:leaf=0.266382
	2:[Col_23<2] yes=5,no=6,missing=5
		5:[Col_9=c] yes=12,no=11
			11:[Col_7<17] yes=23,no=24,missing=23
				23:leaf=0.381141
				24:leaf=0.502296
			12:[Col_22=a] yes=26,no=25
				25:leaf=1.19902
				26:leaf=0.619292
		6:[Col_1<13] yes=13,no=14,missing=13
			13:[Col_7<7] yes=27,no=28,missing=27
				27:leaf=0.223915
				28:leaf=0.327338
			14:[Col_1<19] yes=29,no=30,missing=29
				29:leaf=0.343997
				30:leaf=0.438827
booster[2]:
0:[Col_29=c] yes=2,no=1
	1:[Col_24=c] yes=4,no=3
		3:[Col_1<11] yes=7,no=8,missing=7
			7:[Col_15=b] yes=16,no=15
				15:leaf=0.242991
				16:leaf=0.169465
			8:[Col_11=c] yes=18,no=17
				17:leaf=0.327333
				18:leaf=0.250343
		4:[Col_15=b] yes=10,no=9
			9:[Col_28=f] yes=20,no=19
				19:leaf=0.552169
				20:leaf=0.120274
			10:[Col_18<2] yes=21,no=22,missing=21
				21:leaf=0.319371
				22:leaf=0.143362
	2:[Col_27=f] yes=6,no=5
		5:[Col_7<17] yes=11,no=12,missing=11
			11:[Col_24=c] yes=24,no=23
				23:leaf=0.482537
				24:leaf=0.94406
			12:[Col_12=f] yes=26,no=25
				25:leaf=0.896027
				26:leaf=0.624624
		6:[Col_18<2] yes=13,no=14,missing=13
			13:[Col_26<13] yes=27,no=28,missing=27
				27:leaf=0.802074
				28:leaf=0.436868
			14:[Col_8=c] yes=30,no=29
				29:leaf=0.984276
				30:leaf=1.78374
booster[3]:
0:[Col_24=c] yes=2,no=1
	1:[Col_27=b] yes=4,no=3
		3:[Col_12=f] yes=8,no=7
			7:[Col_28=f] yes=16,no=15
				15:leaf=0.247518
				16:leaf=0.103912
			8:[Col_28=b] yes=18,no=17
				17:leaf=0.299644
				18:leaf=0.49377
		4:[Col_1<14] yes=9,no=10,missing=9
			9:[Col_17=b] yes=20,no=19
				19:leaf=0.16845
				20:leaf=0.253796
			10:[Col_7<15] yes=21,no=22,missing=21
				21:leaf=0.220758
				22:leaf=0.299379
	2:[Col_9=c] yes=6,no=5
		5:[Col_27=b] yes=12,no=11
			11:[Col_16<6] yes=23,no=24,missing=23
				23:leaf=0.936878
				24:leaf=0.476865
			12:[Col_32=b] yes=26,no=25
				25:leaf=0.0843854
				26:leaf=0.346823
		6:[Col_18<2] yes=13,no=14,missing=13
			13:[Col_11=c] yes=28,no=27
				27:leaf=0.332318
				28:leaf=0.854005
			14:leaf=1.3806
booster[4]:
0:[Col_29=c] yes=2,no=1
	1:[Col_11=d] yes=4,no=3
		3:[Col_1<14] yes=7,no=8,missing=7
			7:[Col_15=b] yes=16,no=15
				15:leaf=0.185614
				16:leaf=0.143892
			8:[Col_7<14] yes=17,no=18,missing=17
				17:leaf=0.205324
				18:leaf=0.268278
		4:[Col_1<16] yes=9,no=10,missing=9
			9:[Col_12=f] yes=20,no=19
				19:leaf=0.193441
				20:leaf=0.261658
			10:[Col_7<18] yes=21,no=22,missing=21
				21:leaf=0.29384
				22:leaf=0.467318
	2:[Col_27=f] yes=6,no=5
		5:[Col_6<1] yes=11,no=12,missing=11
			11:[Col_12=f] yes=24,no=23
				23:leaf=0.285826
				24:leaf=0.797061
			12:[Col_7<17] yes=25,no=26,missing=25
				25:leaf=0.406389
				26:leaf=0.653399
		6:[Col_13<2] yes=13,no=14,missing=13
			13:[Col_12=h] yes=28,no=27
				27:leaf=0.599215
				28:leaf=1.30084
			14:[Col_15=k] yes=30,no=29
				29:leaf=1.39521
				30:leaf=0.741934
booster[5]:
0:[Col_29=c] yes=2,no=1
	1:[Col_24=c] yes=4,no=3
		3:[Col_11=d] yes=8,no=7
			7:[Col_1<14] yes=15,no=16,missing=15
				15:leaf=0.146311
				16:leaf=0.188444
			8:[Col_1<6] yes=17,no=18,missing=17
				17:leaf=0.163638
				18:leaf=0.245314
		4:[Col_1<18] yes=9,no=10,missing=9
			9:[Col_27=b] yes=20,no=19
				19:leaf=0.415426
				20:leaf=0.249995
			10:[Col_26<4] yes=21,no=22,missing=21
				21:leaf=0.238686
				22:leaf=0.565303
	2:[Col_12=d] yes=6,no=5
		5:[Col_8=a] yes=12,no=11
			11:[Col_26<13] yes=23,no=24,missing=23
				23:leaf=0.670576
				24:leaf=0.450031
			12:[Col_30<3] yes=25,no=26,missing=25
				25:leaf=0.0573368
				26:leaf=0.379627
		6:[Col_23<2] yes=13,no=14,missing=13
			13:[Col_1<6] yes=27,no=28,missing=27
				27:leaf=0.0834626
				28:leaf=0.298426
			14:leaf=-0.0320686
booster[6]:
0:[Col_24=c] yes=2,no=1
	1:[Col_11=d] yes=4,no=3
		3:[Col_17=a] yes=8,no=7
			7:[Col_7<15] yes=15,no=16,missing=15
				15:leaf=0.159939
				16:leaf=0.224837
			8:[Col_23<2] yes=17,no=18,missing=17
				17:leaf=0.147731
				18:leaf=0.110841
		4:[Col_29=b] yes=10,no=9
			9:[Col_29=d] yes=20,no=19
				19:leaf=0.387841
				20:leaf=0.201334
			10:[Col_9=c] yes=22,no=21
				21:leaf=0.202147
				22:leaf=0.553671
	2:[Col_7<17] yes=5,no=6,missing=5
		5:[Col_18<2] yes=11,no=12,missing=11
			11:[Col_16<6] yes=23,no=24,missing=23
				23:leaf=0.602269
				24:leaf=0.280126
			12:[Col_27=f] yes=26,no=25
				25:leaf=0.360258
				26:leaf=0.614785
		6:[Col_22=b] yes=14,no=13
			13:[Col_10<5] yes=27,no=28,missing=27
				27:leaf=0.873886
				28:leaf=0.293702
			14:leaf=1.19296
booster[7]:
0:[Col_29=c] yes=2,no=1
	1:[Col_24=c] yes=4,no=3
		3:[Col_19<3] yes=7,no=8,missing=7
			7:[Col_10<1] yes=15,no=16,missing=15
				15:leaf=0.207159
				16:leaf=0.129223
			8:[Col_14<54] yes=17,no=18,missing=17
				17:leaf=0.227332
				18:leaf=0.161232
		4:[Col_7<16] yes=9,no=10,missing=9
			9:[Col_26<14] yes=19,no=20,missing=19
				19:leaf=0.331337
				20:leaf=0.160872
			10:[Col_10<2] yes=21,no=22,missing=21
				21:leaf=0.906814
				22:leaf=0.391735
	2:[Col_12=d] yes=6,no=5
		5:[Col_27=f] yes=12,no=11
			11:[Col_14<21] yes=23,no=24,missing=23
				23:leaf=0.866669
				24:leaf=0.379886
			12:[Col_8=a] yes=26,no=25
				25:leaf=0.720651
				26:leaf=0.304606
		6:[Col_14<54] yes=13,no=14,missing=13
			13:leaf=0.436914
			14:[Col_14<85] yes=27,no=28,missing=27
				27:leaf=0.177504
				28:leaf=-0.000487644
booster[8]:
0:[Col_29=c] yes=2,no=1
	1:[Col_1<14] yes=3,no=4,missing=3
		3:[Col_28=f] yes=8,no=7
			7:[Col_12=a] yes=16,no=15
				15:leaf=0.140702
				16:leaf=0.0838882
			8:[Col_7<4] yes=17,no=18,missing=17
				17:leaf=0.00466469
				18:leaf=0.0929735
		4:[Col_11=d] yes=10,no=9
			9:[Col_11=e] yes=20,no=19
				19:leaf=0.135094
				20:leaf=0.226985
			10:[Col_1<20] yes=21,no=22,missing=21
				21:leaf=0.186377
				22:leaf=0.272282
	2:[Col_24=c] yes=6,no=5
		5:[Col_7<17] yes=11,no=12,missing=11
			11:[Col_26<17] yes=23,no=24,missing=23
				23:leaf=0.336825
				24:leaf=-0.0262595
			12:[Col_14<76] yes=25,no=26,missing=25
				25:leaf=0.421688
				26:leaf=0.712765
		6:[Col_31<14] yes=13,no=14,missing=13
			13:leaf=0.255224
			14:leaf=1.12191
booster[9]:
0:[Col_11=d] yes=2,no=1
	1:[Col_28=b] yes=4,no=3
		3:[Col_24=c] yes=8,no=7
			7:[Col_19<5] yes=15,no=16,missing=15
				15:leaf=0.0979783
				16:leaf=0.145312
			8:[Col_9=c] yes=18,no=17
				17:leaf=0.208217
				18:leaf=0.746716
		4:[Col_11=e] yes=10,no=9
			9:[Col_18<2] yes=19,no=20,missing=19
				19:leaf=0.181317
				20:leaf=0.306372
			10:[Col_12=f] yes=22,no=21
				21:leaf=0.273104
				22:leaf=0.66922
	2:[Col_12=f] yes=6,no=5
		5:[Col_9=c] yes=12,no=11
			11:[Col_10<3] yes=23,no=24,missing=23
				23:leaf=0.198477
				24:leaf=0.120066
			12:[Col_16<9] yes=25,no=26,missing=25
				25:leaf=1.03483
				26:leaf=0.290856
		6:[Col_19<1] yes=13,no=14,missing=13
			13:[Col_8=a] yes=28,no=27
				27:leaf=0.189415
				28:leaf=0.0822471
			14:[Col_14<60] yes=29,no=30,missing=29
				29:leaf=0.272304
				30:leaf=0.182987
booster[10]:
0:[Col_24=c] yes=2,no=1
	1:[Col_17=i] yes=4,no=3
		3:[Col_28=b] yes=8,no=7
			7:[Col_28=a] yes=16,no=15
				15:leaf=0.0383628
				16:leaf=0.109064
			8:[Col_7<18] yes=17,no=18,missing=17
				17:leaf=0.184282
				18:leaf=0.779686
		4:[Col_7<2] yes=9,no=10,missing=9
			9:[Col_23<2] yes=19,no=20,missing=19
				19:leaf=0.0811777
				20:leaf=0.00833794
			10:[Col_6<5] yes=21,no=22,missing=21
				21:leaf=0.157024
				22:leaf=0.24543
	2:[Col_9=c] yes=6,no=5
		5:[Col_15=b] yes=12,no=11
			11:[Col_7<9] yes=23,no=24,missing=23
				23:leaf=0.206504
				24:leaf=0.318913
			12:[Col_14<61] yes=25,no=26,missing=25
				25:leaf=-0.0200012
				26:leaf=0.223125
		6:[Col_7<10] yes=13,no=14,missing=13
			13:leaf=0.143207
			14:[Col_31<14] yes=27,no=28,missing=27
				27:leaf=0.578342
				28:leaf=1.31458
booster[11]:
0:[Col_7<17] yes=1,no=2,missing=1
	1:[Col_12=f] yes=4,no=3
		3:[Col_10<2] yes=7,no=8,missing=7
			7:[Col_14<39] yes=15,no=16,missing=15
				15:leaf=0.213872
				16:leaf=0.11759
			8:[Col_7<2] yes=17,no=18,missing=17
				17:leaf=0.0336175
				18:leaf=0.0847841
		4:[Col_7<10] yes=9,no=10,missing=9
			9:[Col_15=b] yes=20,no=19
				19:leaf=0.177705
				20:leaf=0.0799202
			10:[Col_9=c] yes=22,no=21
				21:leaf=0.0855001
				22:leaf=0.582479
	2:[Col_29=b] yes=6,no=5
		5:[Col_29=a] yes=12,no=11
			11:[Col_29=d] yes=24,no=23
				23:leaf=0.526721
				24:leaf=0.249792
			12:[Col_14<45] yes=25,no=26,missing=25
				25:leaf=0.294082
				26:leaf=0.0451605
		6:[Col_15=b] yes=14,no=13
			13:[Col_15=a] yes=28,no=27
				27:leaf=0.182753
				28:leaf=0.0196777
			14:[Col_6<3] yes=29,no=30,missing=29
				29:leaf=0.0122684
				30:leaf=0.108848
booster[12]:
0:[Col_11=d] yes=2,no=1
	1:[Col_26<7] yes=3,no=4,missing=3
		3:[Col_18<3] yes=7,no=8,missing=7
			7:[Col_12=e] yes=16,no=15
				15:leaf=0.046079
				16:leaf=0.214374
			8:[Col_14<20] yes=17,no=18,missing=17
				17:leaf=0.245088
				18:leaf=0.0935354
		4:[Col_17=a] yes=10,no=9
			9:[Col_16<17] yes=19,no=20,missing=19
				19:leaf=0.122729
				20:leaf=0.0587774
			10:[Col_1<17] yes=21,no=22,missing=21
				21:leaf=0.0535458
				22:leaf=0.130196
	2:[Col_1<18] yes=5,no=6,missing=5
		5:[Col_7<6] yes=11,no=12,missing=11
			11:[Col_12=b] yes=24,no=23
				23:leaf=0.0856413
				24:leaf=0.0320922
			12:[Col_10<5] yes=25,no=26,missing=25
				25:leaf=0.174227
				26:leaf=0.110771
		6:[Col_10<2] yes=13,no=14,missing=13
			13:[Col_17=f] yes=28,no=27
				27:leaf=0.199381
				28:leaf=0.369471
			14:[Col_7<15] yes=29,no=30,missing=29
				29:leaf=0.14421
				30:leaf=0.269114
booster[13]:
0:[Col_29=b] yes=2,no=1
	1:[Col_29=d] yes=4,no=3
		3:[Col_23<2] yes=7,no=8,missing=7
			7:[Col_19<2] yes=15,no=16,missing=15
				15:leaf=0.188732
				16:leaf=0.331672
			8:[Col_17=i] yes=18,no=17
				17:leaf=0.0538878
				18:leaf=0.206548
		4:[Col_7<17] yes=9,no=10,missing=9
			9:[Col_18<5] yes=19,no=20,missing=19
				19:leaf=0.0606402
				20:leaf=0.236139
			10:[Col_14<20] yes=21,no=22,missing=21
				21:leaf=0.711463
				22:leaf=0.156028
	2:[Col_11=d] yes=6,no=5
		5:[Col_9=c] yes=12,no=11
			11:[Col_10<2] yes=23,no=24,missing=23
				23:leaf=0.107397
				24:leaf=0.0598607
			12:[Col_27=j] yes=26,no=25
				25:leaf=0.124898
				26:leaf=0.491119
		6:[Col_19<3] yes=13,no=14,missing=13
			13:[Col_10<1] yes=27,no=28,missing=27
				27:leaf=0.156773
				28:leaf=0.078277
			14:[Col_14<53] yes=29,no=30,missing=29
				29:leaf=0.195685
				30:leaf=0.0917592
booster[14]:
0:[Col_24=c] yes=2,no=1
	1:[Col_19<1] yes=3,no=4,missing=3
		3:[Col_10<1] yes=7,no=8,missing=7
			7:[Col_1<13] yes=15,no=16,missing=15
				15:leaf=0.0954677
				16:leaf=0.169527
			8:[Col_1<9] yes=17,no=18,missing=17
				17:leaf=0.0201346
				18:leaf=0.0605689
		4:[Col_14<69] yes=9,no=10,missing=9
			9:[Col_17=a] yes=20,no=19
				19:leaf=0.133445
				20:leaf=0.0468321
			10:[Col_4=a] yes=22,no=21
				21:leaf=0.03293
				22:leaf=0.0787438
	2:[Col_15=n] yes=6,no=5
		5:[Col_6<7] yes=11,no=12,missing=11
			11:[Col_26<18] yes=23,no=24,missing=23
				23:leaf=0.177892
				24:leaf=-0.0652118
			12:leaf=0.604217
		6:[Col_19<1] yes=13,no=14,missing=13
			13:[Col_16<11] yes=25,no=26,missing=25
				25:leaf=0.30576
				26:leaf=0.029397
			14:leaf=0.747022
booster[15]:
0:[Col_29=c] yes=2,no=1
	1:[Col_1<15] yes=3,no=4,missing=3
		3:[Col_28=b] yes=8,no=7
			7:[Col_6<5] yes=15,no=16,missing=15
				15:leaf=0.04102
				16:leaf=0.0946299
			8:[Col_18<2] yes=17,no=18,missing=17
				17:leaf=0.116194
				18:leaf=0.259826
		4:[Col_16<7] yes=9,no=10,missing=9
			9:[Col_16<3] yes=19,no=20,missing=19
				19:leaf=0.600911
				20:leaf=0.172916
			10:[Col_9=c] yes=22,no=21
				21:leaf=0.0770614
				22:leaf=0.309357
	2:[Col_8=c] yes=6,no=5
		5:[Col_18<4] yes=11,no=12,missing=11
			11:[Col_31<8] yes=23,no=24,missing=23
				23:leaf=0.344672
				24:leaf=0.148113
			12:[Col_17=i] yes=26,no=25
				25:leaf=0.177912
				26:leaf=0.742053
		6:[Col_22=a] yes=14,no=13
			13:[Col_14<49] yes=27,no=28,missing=27
				27:leaf=0.223739
				28:leaf=1.05019
			14:[Col_10<19] yes=29,no=30,missing=29
				29:leaf=0.133309
				30:leaf=0.585638
booster[16]:
0:[Col_29=c] yes=2,no=1
	1:[Col_12=b] yes=4,no=3
		3:[Col_26<4] yes=7,no=8,missing=7
			7:[Col_10<2] yes=15,no=16,missing=15
				15:leaf=0.0863174
				16:leaf=0.0105751
			8:[Col_1<9] yes=17,no=18,missing=17
				17:leaf=0.0453304
				18:leaf=0.0844239
		4:[Col_16<10] yes=9,no=10,missing=9
			9:[Col_10<2] yes=19,no=20,missing=19
				19:leaf=0.119038
				20:leaf=0.0378065
			10:[Col_16<16] yes=21,no=22,missing=21
				21:leaf=0.00299836
				22:leaf=-0.0416815
	2:[Col_12=d] yes=6,no=5
		5:[Col_24=c] yes=12,no=11
			11:[Col_19<10] yes=23,no=24,missing=23
				23:leaf=0.237798
				24:leaf=0.502092
			12:[Col_10<5] yes=25,no=26,missing=25
				25:leaf=0.0605675
				26:leaf=1.01171
		6:[Col_1<14] yes=13,no=14,missing=13
			13:[Col_16<12] yes=27,no=28,missing=27
				27:leaf=-0.26618
				28:leaf=-0.0266682
			14:leaf=0.206744
booster[17]:
0:[Col_24=c] yes=2,no=1
	1:[Col_23<2] yes=3,no=4,missing=3
		3:[Col_27=b] yes=8,no=7
			7:[Col_7<17] yes=15,no=16,missing=15
				15:leaf=0.0725173
				16:leaf=0.153442
			8:[Col_16<14] yes=17,no=18,missing=17
				17:leaf=0.0481551
				18:leaf=0.0128298
		4:[Col_7<2] yes=9,no=10,missing=9
			9:[Col_16<15] yes=19,no=20,missing=19
				19:leaf=-0.00428643
				20:leaf=-0.0502363
			10:[Col_12=e] yes=22,no=21
				21:leaf=0.0390067
				22:leaf=0.180478
	2:[Col_9=c] yes=6,no=5
		5:[Col_27=b] yes=12,no=11
			11:[Col_18<2] yes=23,no=24,missing=23
				23:leaf=0.139771
				24:leaf=0.290173
			12:[Col_2<4] yes=25,no=26,missing=25
				25:leaf=-0.0349427
				26:leaf=0.117757
		6:[Col_17=i] yes=14,no=13
			13:[Col_31<11] yes=27,no=28,missing=27
				27:leaf=0.355868
				28:leaf=0.895857
			14:leaf=0.0508982
booster[18]:
0:[Col_24=c] yes=2,no=1
	1:[Col_19<4] yes=3,no=4,missing=3
		3:[Col_1<14] yes=7,no=8,missing=7
			7:[Col_16<10] yes=15,no=16,missing=15
				15:leaf=0.00106094
				16:leaf=0.0422741
			8:[Col_16<11] yes=17,no=18,missing=17
				17:leaf=0.0892436
				18:leaf=0.0402625
		4:[Col_14<42] yes=9,no=10,missing=9
			9:[Col_27=f] yes=20,no=19
				19:leaf=0.106551
				20:leaf=0.223597
			10:[Col_7<15] yes=21,no=22,missing=21
				21:leaf=0.0600454
				22:leaf=0.124276
	2:[Col_9=c] yes=6,no=5
		5:[Col_7<9] yes=11,no=12,missing=11
			11:[Col_1<17] yes=23,no=24,missing=23
				23:leaf=0.0551835
				24:leaf=0.190936
			12:[Col_7<10] yes=25,no=26,missing=25
				25:leaf=0.470741
				26:leaf=0.148825
		6:[Col_14<55] yes=13,no=14,missing=13
			13:leaf=0.0942348
			14:[Col_30<8] yes=27,no=28,missing=27
				27:leaf=0.40379
				28:leaf=1.04862
booster[19]:
0:[Col_1<5] yes=1,no=2,missing=1
	1:[Col_19<5] yes=3,no=4,missing=3
		3:[Col_12=a] yes=8,no=7
			7:[Col_7<11] yes=15,no=16,missing=15
				15:leaf=0.0331484
				16:leaf=-0.00587553
			8:[Col_7<7] yes=17,no=18,missing=17
				17:leaf=-0.0518119
				18:leaf=0.00975969
		4:[Col_28=a] yes=10,no=9
			9:[Col_20=a] yes=20,no=19
				19:leaf=0.215308
				20:leaf=-0.109559
			10:[Col_21<1] yes=21,no=22,missing=21
				21:leaf=0.295332
				22:leaf=0.0981428
	2:[Col_17=i] yes=6,no=5
		5:[Col_9=c] yes=12,no=11
			11:[Col_7<10] yes=23,no=24,missing=23
				23:leaf=0.0553733
				24:leaf=0.0236027
			12:[Col_7<17] yes=25,no=26,missing=25
				25:leaf=0.187044
				26:leaf=0.870434
		6:[Col_7<15] yes=13,no=14,missing=13
			13:[Col_7<11] yes=27,no=28,missing=27
				27:leaf=0.0915602
				28:leaf=0.0153901
			14:[Col_1<18] yes=29,no=30,missing=29
				29:leaf=0.121753
				30:leaf=0.22569
booster[20]:
0:[Col_24=c] yes=2,no=1
	1:[Col_1<18] yes=3,no=4,missing=3
		3:[Col_10<5] yes=7,no=8,missing=7
			7:[Col_15=b] yes=16,no=15
				15:leaf=0.0683986
				16:leaf=0.00353456
			8:[Col_3=b] yes=18,no=17
				17:leaf=0.0306969
				18:leaf=-0.0109218
		4:[Col_7<15] yes=9,no=10,missing=9
			9:[Col_7<10] yes=19,no=20,missing=19
				19:leaf=0.09706
				20:leaf=0.00791116
			10:[Col_6<4] yes=21,no=22,missing=21
				21:leaf=0.109156
				22:leaf=0.270736
	2:[Col_29=b] yes=6,no=5
		5:[Col_1<18] yes=11,no=12,missing=11
			11:[Col_21<4] yes=23,no=24,missing=23
				23:leaf=0.694219
				24:leaf=0.155614
			12:leaf=-0.10117
		6:[Col_7<16] yes=13,no=14,missing=13
			13:[Col_6<7] yes=25,no=26,missing=25
				25:leaf=0.0779649
				26:leaf=0.493184
			14:[Col_27=b] yes=28,no=27
				27:leaf=0.390919
				28:leaf=0.0898829
booster[21]:
0:[Col_29=c] yes=2,no=1
	1:[Col_6<3] yes=3,no=4,missing=3
		3:[Col_10<2] yes=7,no=8,missing=7
			7:[Col_24=c] yes=16,no=15
				15:leaf=0.0553791
				16:leaf=0.242249
			8:[Col_28=b] yes=18,no=17
				17:leaf=0.0123122
				18:leaf=0.120189
		4:[Col_1<9] yes=9,no=10,missing=9
			9:[Col_23<2] yes=19,no=20,missing=19
				19:leaf=0.0426207
				20:leaf=-0.0163818
			10:[Col_11=d] yes=22,no=21
				21:leaf=0.0494709
				22:leaf=0.0983112
	2:[Col_18<2] yes=5,no=6,missing=5
		5:[Col_14<41] yes=11,no=12,missing=11
			11:[Col_6<5] yes=23,no=24,missing=23
				23:leaf=0.251729
				24:leaf=1.02417
			12:[Col_7<17] yes=25,no=26,missing=25
				25:leaf=0.0393507
				26:leaf=0.299775
		6:[Col_27=f] yes=14,no=13
			13:[Col_14<22] yes=27,no=28,missing=27
				27:leaf=0.796856
				28:leaf=0.155302
			14:[Col_7<12] yes=29,no=30,missing=29
				29:leaf=0.276795
				30:leaf=0.896263
booster[22]:
0:[Col_9=c] yes=2,no=1
	1:[Col_12=f] yes=4,no=3
		3:[Col_12=e] yes=8,no=7
			7:[Col_7<14] yes=15,no=16,missing=15
				15:leaf=0.00964016
				16:leaf=0.0544609
			8:[Col_21<2] yes=17,no=18,missing=17
				17:leaf=0.285999
				18:leaf=0.110318
		4:[Col_7<10] yes=9,no=10,missing=9
			9:[Col_7<3] yes=19,no=20,missing=19
				19:leaf=0.0239512
				20:leaf=0.0864002
			10:[Col_7<14] yes=21,no=22,missing=21
				21:leaf=-0.00184514
				22:leaf=0.0581939
	2:[Col_1<10] yes=5,no=6,missing=5
		5:[Col_21<4] yes=11,no=12,missing=11
			11:[Col_6<3] yes=23,no=24,missing=23
				23:leaf=-0.0867421
				24:leaf=-0.301116
			12:leaf=0.105771
		6:[Col_21<3] yes=13,no=14,missing=13
			13:[Col_21<2] yes=25,no=26,missing=25
				25:leaf=0.078323
				26:leaf=0.718386
			14:[Col_14<37] yes=27,no=28,missing=27
				27:leaf=0.50924
				28:leaf=0.12759
booster[23]:
0:[Col_29=c] yes=2,no=1
	1:[Col_7<15] yes=3,no=4,missing=3
		3:[Col_7<11] yes=7,no=8,missing=7
			7:[Col_1<20] yes=15,no=16,missing=15
				15:leaf=0.0276179
				16:leaf=0.114084
			8:[Col_14<8] yes=17,no=18,missing=17
				17:leaf=0.149557
				18:leaf=-0.0196685
		4:[Col_1<5] yes=9,no=10,missing=9
			9:[Col_19<9] yes=19,no=20,missing=19
				19:leaf=-0.00641811
				20:leaf=0.231656
			10:[Col_1<19] yes=21,no=22,missing=21
				21:leaf=0.0646198
				22:leaf=0.154817
	2:[Col_12=d] yes=6,no=5
		5:[Col_14<31] yes=11,no=12,missing=11
			11:[Col_19<2] yes=23,no=24,missing=23
				23:leaf=0.197497
				24:leaf=0.613374
			12:[Col_7<17] yes=25,no=26,missing=25
				25:leaf=0.0971235
				26:leaf=0.275742
		6:[Col_14<87] yes=13,no=14,missing=13
			13:[Col_19<5] yes=27,no=28,missing=27
				27:leaf=-0.0614965
				28:leaf=0.204858
			14:[Col_7<10] yes=29,no=30,missing=29
				29:leaf=-0.223049
				30:leaf=-0.0559666
booster[24]:
0:[Col_17=a] yes=2,no=1
	1:[Col_16<17] yes=3,no=4,missing=3
		3:[Col_26<4] yes=7,no=8,missing=7
			7:[Col_17=b] yes=16,no=15
				15:leaf=-0.00710356
				16:leaf=0.0679446
			8:[Col_1<19] yes=17,no=18,missing=17
				17:leaf=0.0426533
				18:leaf=0.103702
		4:[Col_1<22] yes=9,no=10,missing=9
			9:[Col_28=b] yes=20,no=19
				19:leaf=-0.00848319
				20:leaf=0.138394
			10:[Col_30<8] yes=21,no=22,missing=21
				21:leaf=0.166986
				22:leaf=0.0303611
	2:[Col_1<17] yes=5,no=6,missing=5
		5:[Col_1<7] yes=11,no=12,missing=11
			11:[Col_12=c] yes=24,no=23
				23:leaf=-0.0293938
				24:leaf=0.0908404
			12:[Col_16<8] yes=25,no=26,missing=25
				25:leaf=0.0258774
				26:leaf=-0.0129084
		6:[Col_16<6] yes=13,no=14,missing=13
			13:[Col_21<3] yes=27,no=28,missing=27
				27:leaf=0.482695
				28:leaf=0.0546997
			14:[Col_7<3] yes=29,no=30,missing=29
				29:leaf=-0.00314994
				30:leaf=0.0534329
booster[25]:
0:[Col_24=c] yes=2,no=1
	1:[Col_28=f] yes=4,no=3
		3:[Col_26<5] yes=7,no=8,missing=7
			7:[Col_18<3] yes=15,no=16,missing=15
				15:leaf=-0.0111711
				16:leaf=0.0443601
			8:[Col_14<69] yes=17,no=18,missing=17
				17:leaf=0.0417967
				18:leaf=0.0118308
		4:[Col_11=c] yes=10,no=9
			9:[Col_14<83] yes=19,no=20,missing=19
				19:leaf=-0.0732402
				20:leaf=-0.00251502
			10:[Col_16<14] yes=21,no=22,missing=21
				21:leaf=-0.000378834
				22:leaf=-0.0728751
	2:[Col_15=e] yes=6,no=5
		5:[Col_14<36] yes=11,no=12,missing=11
			11:[Col_13<1] yes=23,no=24,missing=23
				23:leaf=0.156638
				24:leaf=-0.0382096
			12:[Col_11=c] yes=26,no=25
				25:leaf=0.156766
				26:leaf=0.0593556
		6:[Col_14<42] yes=13,no=14,missing=13
			13:leaf=1.03923
			14:[Col_14<54] yes=27,no=28,missing=27
				27:leaf=0.276007
				28:leaf=-0.0491502
booster[26]:
0:[Col_29=c] yes=2,no=1
	1:[Col_10<2] yes=3,no=4,missing=3
		3:[Col_3=a] yes=8,no=7
			7:[Col_16<17] yes=15,no=16,missing=15
				15:leaf=0.102902
				16:leaf=0.0202593
			8:[Col_11=e] yes=18,no=17
				17:leaf=0.017938
				18:leaf=0.166171
		4:[Col_28=b] yes=10,no=9
			9:[Col_15=a] yes=20,no=19
				19:leaf=0.0130638
				20:leaf=-0.0376215
			10:[Col_7<17] yes=21,no=22,missing=21
				21:leaf=0.0768693
				22:leaf=0.267586
	2:[Col_12=h] yes=6,no=5
		5:[Col_21<2] yes=11,no=12,missing=11
			11:[Col_21<1] yes=23,no=24,missing=23
				23:leaf=0.0543089
				24:leaf=-0.12492
			12:[Col_7<10] yes=25,no=26,missing=25
				25:leaf=0.216948
				26:leaf=0.0693552
		6:[Col_21<3] yes=13,no=14,missing=13
			13:leaf=0.901801
			14:[Col_21<5] yes=27,no=28,missing=27
				27:leaf=-0.221975
				28:leaf=0.341772
booster[27]:
0:[Col_15=b] yes=2,no=1
	1:[Col_6<3] yes=3,no=4,missing=3
		3:[Col_14<86] yes=7,no=8,missing=7
			7:[Col_7<10] yes=15,no=16,missing=15
				15:leaf=0.0364725
				16:leaf=0.00533336
			8:[Col_24=c] yes=18,no=17
				17:leaf=-0.0269851
				18:leaf=0.139547
		4:[Col_7<11] yes=9,no=10,missing=9
			9:[Col_7<9] yes=19,no=20,missing=19
				19:leaf=0.0461496
				20:leaf=0.116312
			10:[Col_7<14] yes=21,no=22,missing=21
				21:leaf=-0.0206341
				22:leaf=0.0648048
	2:[Col_12=d] yes=6,no=5
		5:[Col_6<6] yes=11,no=12,missing=11
			11:[Col_14<79] yes=23,no=24,missing=23
				23:leaf=-0.0195313
				24:leaf=0.0145907
			12:[Col_7<3] yes=25,no=26,missing=25
				25:leaf=-0.0256127
				26:leaf=0.104197
		6:[Col_26<14] yes=13,no=14,missing=13
			13:[Col_14<78] yes=27,no=28,missing=27
				27:leaf=0.335394
				28:leaf=0.167571
			14:leaf=-0.0851262
booster[28]:
0:[Col_29=c] yes=2,no=1
	1:[Col_6<3] yes=3,no=4,missing=3
		3:[Col_16<3] yes=7,no=8,missing=7
			7:[Col_23<3] yes=15,no=16,missing=15
				15:leaf=0.464332
				16:leaf=0.0502833
			8:[Col_18<2] yes=17,no=18,missing=17
				17:leaf=-0.00615668
				18:leaf=0.0212037
		4:[Col_1<7] yes=9,no=10,missing=9
			9:[Col_23<2] yes=19,no=20,missing=19
				19:leaf=0.013684
				20:leaf=-0.0366246
			10:[Col_11=d] yes=22,no=21
				21:leaf=0.0229632
				22:leaf=0.0637884
	2:[Col_18<2] yes=5,no=6,missing=5
		5:[Col_1<18] yes=11,no=12,missing=11
			11:[Col_15=j] yes=24,no=23
				23:leaf=0.056731
				24:leaf=-0.240205
			12:[Col_16<15] yes=25,no=26,missing=25
				25:leaf=0.132472
				26:leaf=0.596094
		6:[Col_27=f] yes=14,no=13
			13:[Col_16<16] yes=27,no=28,missing=27
				27:leaf=0.194625
				28:leaf=-0.165832
			14:[Col_6<5] yes=29,no=30,missing=29
				29:leaf=0.614581
				30:leaf=-0.198461
booster[29]:
0:[Col_1<17] yes=1,no=2,missing=1
	1:[Col_19<4] yes=3,no=4,missing=3
		3:[Col_28=b] yes=8,no=7
			7:[Col_7<11] yes=15,no=16,missing=15
				15:leaf=0.00662883
				16:leaf=-0.016332
			8:[Col_7<17] yes=17,no=18,missing=17
				17:leaf=0.0527052
				18:leaf=0.242443
		4:[Col_6<2] yes=9,no=10,missing=9
			9:[Col_16<21] yes=19,no=20,missing=19
				19:leaf=0.00132218
				20:leaf=-0.120914
			10:[Col_7<15] yes=21,no=22,missing=21
				21:leaf=0.0376673
				22:leaf=0.12352
	2:[Col_16<11] yes=5,no=6,missing=5
		5:[Col_16<6] yes=11,no=12,missing=11
			11:[Col_1<20] yes=23,no=24,missing=23
				23:leaf=0.149055
				24:leaf=0.515102
			12:[Col_12=f] yes=26,no=25
				25:leaf=0.0484498
				26:leaf=0.095355
		6:[Col_28=c] yes=14,no=13
			13:[Col_1<22] yes=27,no=28,missing=27
				27:leaf=0.0121861
				28:leaf=0.0736189
			14:[Col_6<2] yes=29,no=30,missing=29
				29:leaf=-0.0442841
				30:leaf=-0.158575
booster[30]:
0:[Col_29=c] yes=2,no=1
	1:[Col_10<5] yes=3,no=4,missing=3
		3:[Col_12=a] yes=8,no=7
			7:[Col_16<20] yes=15,no=16,missing=15
				15:leaf=0.0515059
				16:leaf=-0.0375765
			8:[Col_14<73] yes=17,no=18,missing=17
				17:leaf=0.0187361
				18:leaf=-0.0424964
		4:[Col_28=e] yes=10,no=9
			9:[Col_12=e] yes=20,no=19
				19:leaf=0.0044831
				20:leaf=0.0920796
			10:[Col_12=f] yes=22,no=21
				21:leaf=-0.126674
				22:leaf=0.110934
	2:[Col_12=d] yes=6,no=5
		5:[Col_27=f] yes=12,no=11
			11:[Col_4=a] yes=24,no=23
				23:leaf=-0.188563
				24:leaf=0.117992
			12:[Col_15=j] yes=26,no=25
				25:leaf=0.292569
				26:leaf=-0.141569
		6:[Col_18<2] yes=13,no=14,missing=13
			13:[Col_10<18] yes=27,no=28,missing=27
				27:leaf=-0.161008
				28:leaf=0.0282863
			14:[Col_6<3] yes=29,no=30,missing=29
				29:leaf=-0.0665866
				30:leaf=0.272648
booster[31]:
0:[Col_29=c] yes=2,no=1
	1:[Col_18<2] yes=3,no=4,missing=3
		3:[Col_19<4] yes=7,no=8,missing=7
			7:[Col_12=f] yes=16,no=15
				15:leaf=-0.0161234
				16:leaf=0.00935271
			8:[Col_7<15] yes=17,no=18,missing=17
				17:leaf=0.0119269
				18:leaf=0.0758759
		4:[Col_16<16] yes=9,no=10,missing=9
			9:[Col_1<17] yes=19,no=20,missing=19
				19:leaf=0.021985
				20:leaf=0.0799692
			10:[Col_1<21] yes=21,no=22,missing=21
				21:leaf=-0.0234111
				22:leaf=0.0378934
	2:[Col_8=a] yes=6,no=5
		5:[Col_12=d] yes=12,no=11
			11:[Col_4=a] yes=24,no=23
				23:leaf=-0.00763484
				24:leaf=0.18357
			12:[Col_1<13] yes=25,no=26,missing=25
				25:leaf=-0.0906776
				26:leaf=0.217676
		6:[Col_7<17] yes=13,no=14,missing=13
			13:[Col_6<5] yes=27,no=28,missing=27
				27:leaf=-0.139472
				28:leaf=0.138907
			14:[Col_31<8] yes=29,no=30,missing=29
				29:leaf=0.405323
				30:leaf=0.000532834
booster[32]:
0:[Col_24=c] yes=2,no=1
	1:[Col_29=c] yes=4,no=3
		3:[Col_12=b] yes=8,no=7
			7:[Col_19<2] yes=15,no=16,missing=15
				15:leaf=0.0023092
				16:leaf=0.0251404
			8:[Col_16<15] yes=17,no=18,missing=17
				17:leaf=-0.00549799
				18:leaf=-0.0676705
		4:[Col_23<2] yes=9,no=10,missing=9
			9:[Col_1<18] yes=19,no=20,missing=19
				19:leaf=0.0837384
				20:leaf=0.304089
			10:[Col_22=a] yes=22,no=21
				21:leaf=0.060246
				22:leaf=-0.131686
	2:[Col_29=c] yes=6,no=5
		5:[Col_6<7] yes=11,no=12,missing=11
			11:[Col_27=b] yes=24,no=23
				23:leaf=0.116061
				24:leaf=-0.00432346
			12:leaf=0.525568
		6:[Col_30<8] yes=13,no=14,missing=13
			13:leaf=-0.11098
			14:[Col_10<13] yes=25,no=26,missing=25
				25:leaf=0.956168
				26:leaf=0.359686
booster[33]:
0:[Col_9=c] yes=2,no=1
	1:[Col_29=c] yes=4,no=3
		3:[Col_24=c] yes=8,no=7
			7:[Col_6<3] yes=13,no=14,missing=13
				13:leaf=-0.00250683
				14:leaf=0.0171552
			8:[Col_14<38] yes=15,no=16,missing=15
				15:leaf=0.0102676
				16:leaf=0.092872
		4:[Col_14<88] yes=9,no=10,missing=9
			9:[Col_27=f] yes=18,no=17
				17:leaf=0.050723
				18:leaf=0.197823
			10:[Col_19<10] yes=19,no=20,missing=19
				19:leaf=-0.100777
				20:leaf=0.31093
	2:[Col_1<21] yes=5,no=6,missing=5
		5:[Col_8=c] yes=12,no=11
			11:[Col_18<3] yes=21,no=22,missing=21
				21:leaf=0.00442053
				22:leaf=0.3461
			12:[Col_6<4] yes=23,no=24,missing=23
				23:leaf=0.528875
				24:leaf=0.0424363
		6:leaf=0.565389
booster[34]:
0:[Col_23<2] yes=1,no=2,missing=1
	1:[Col_7<10] yes=3,no=4,missing=3
		3:[Col_7<9] yes=7,no=8,missing=7
			7:[Col_16<3] yes=15,no=16,missing=15
				15:leaf=0.384743
				16:leaf=0.0258475
			8:[Col_6<3] yes=17,no=18,missing=17
				17:leaf=0.047994
				18:leaf=0.169548
		4:[Col_7<14] yes=9,no=10,missing=9
			9:[Col_24=c] yes=20,no=19
				19:leaf=-0.0339022
				20:leaf=0.0749009
			10:[Col_19<3] yes=21,no=22,missing=21
				21:leaf=0.00840299
				22:leaf=0.0657376
	2:[Col_7<3] yes=5,no=6,missing=5
		5:[Col_28=b] yes=12,no=11
			11:[Col_15=k] yes=24,no=23
				23:leaf=-0.0337835
				24:leaf=-0.0987355
			12:leaf=0.244863
		6:[Col_6<7] yes=13,no=14,missing=13
			13:[Col_16<10] yes=25,no=26,missing=25
				25:leaf=-0.013301
				26:leaf=0.0162614
			14:[Col_30<8] yes=27,no=28,missing=27
				27:leaf=0.352544
				28:leaf=0.0254421
booster[35]:
0:[Col_9=c] yes=2,no=1
	1:[Col_16<4] yes=3,no=4,missing=3
		3:[Col_3=a] yes=8,no=7
			7:[Col_1<15] yes=13,no=14,missing=13
				13:leaf=0.190473
				14:leaf=0.774733
			8:[Col_15=k] yes=16,no=15
				15:leaf=0.00484659
				16:leaf=0.352392
		4:[Col_28=f] yes=10,no=9
			9:[Col_26<4] yes=17,no=18,missing=17
				17:leaf=-0.0159079
				18:leaf=0.0153832
			10:[Col_17=i] yes=20,no=19
				19:leaf=-0.0301787
				20:leaf=-0.0745586
	2:[Col_21<1] yes=5,no=6,missing=5
		5:leaf=-0.265284
		6:[Col_21<3] yes=11,no=12,missing=11
			11:[Col_17=f] yes=22,no=21
				21:leaf=0.272916
				22:leaf=0.850981
			12:[Col_2<9] yes=23,no=24,missing=23
				23:leaf=0.153054
				24:leaf=-0.0493056
booster[36]:
0:[Col_18<2] yes=1,no=2,missing=1
	1:[Col_1<20] yes=3,no=4,missing=3
		3:[Col_15=a] yes=8,no=7
			7:[Col_3=c] yes=16,no=15
				15:leaf=-0.0061776
				16:leaf=0.0301949
			8:[Col_7<7] yes=17,no=18,missing=17
				17:leaf=-0.0138547
				18:leaf=-0.0700296
		4:[Col_9=c] yes=10,no=9
			9:[Col_28=a] yes=20,no=19
				19:leaf=-0.0674244
				20:leaf=0.0506823
			10:[Col_11=c] yes=22,no=21
				21:leaf=0.562504
				22:leaf=0.2067
	2:[Col_29=c] yes=6,no=5
		5:[Col_16<21] yes=11,no=12,missing=11
			11:[Col_1<9] yes=23,no=24,missing=23
				23:leaf=0.00116935
				24:leaf=0.0346393
			12:[Col_8=a] yes=26,no=25
				25:leaf=-0.052574
				26:leaf=0.0538666
		6:[Col_16<15] yes=13,no=14,missing=13
			13:[Col_15=j] yes=28,no=27
				27:leaf=0.204177
				28:leaf=0.762706
			14:[Col_16<18] yes=29,no=30,missing=29
				29:leaf=-0.00511496
				30:leaf=-0.301801
booster[37]:
0:[Col_7<17] yes=1,no=2,missing=1
	1:[Col_7<11] yes=3,no=4,missing=3
		3:[Col_7<2] yes=7,no=8,missing=7
			7:[Col_12=f] yes=16,no=15
				15:leaf=-0.0402872
				16:leaf=0.0227765
			8:[Col_12=a] yes=18,no=17
				17:leaf=0.0310404
				18:leaf=-0.00835619
		4:[Col_7<14] yes=9,no=10,missing=9
			9:[Col_14<21] yes=19,no=20,missing=19
				19:leaf=0.062634
				20:leaf=-0.0462567
			10:[Col_16<5] yes=21,no=22,missing=21
				21:leaf=0.214351
				22:leaf=0.00785163
	2:[Col_24=c] yes=6,no=5
		5:[Col_1<10] yes=11,no=12,missing=11
			11:[Col_16<9] yes=23,no=24,missing=23
				23:leaf=-0.0579649
				24:leaf=0.0469808
			12:[Col_16<5] yes=25,no=26,missing=25
				25:leaf=0.456008
				26:leaf=0.0607538
		6:[Col_2<4] yes=13,no=14,missing=13
			13:leaf=-0.0699988
			14:[Col_14<56] yes=27,no=28,missing=27
				27:leaf=0.216839
				28:leaf=0.70763
booster[38]:
0:[Col_6<8] yes=1,no=2,missing=1
	1:[Col_27=a] yes=4,no=3
		3:[Col_15=b] yes=8,no=7
			7:[Col_28=f] yes=16,no=15
				15:leaf=0.0151509
				16:leaf=-0.0482614
			8:[Col_26<8] yes=17,no=18,missing=17
				17:leaf=-0.0263742
				18:leaf=-0.00145218
		4:[Col_30<13] yes=9,no=10,missing=9
			9:[Col_15=a] yes=20,no=19
				19:leaf=-0.0565814
				20:leaf=-0.137063
			10:[Col_1<10] yes=21,no=22,missing=21
				21:leaf=0.0677875
				22:leaf=-0.0420958
	2:[Col_1<17] yes=5,no=6,missing=5
		5:[Col_11=d] yes=12,no=11
			11:[Col_16<12] yes=23,no=24,missing=23
				23:leaf=0.22681
				24:leaf=0.0851102
			12:leaf=0.535436
		6:[Col_21<2] yes=13,no=14,missing=13
			13:leaf=0.312297
			14:[Col_17=i] yes=26,no=25
				25:leaf=0.0825381
				26:leaf=-0.106775
booster[39]:
0:[Col_7<17] yes=1,no=2,missing=1
	1:[Col_7<11] yes=3,no=4,missing=3
		3:[Col_7<2] yes=7,no=8,missing=7
			7:[Col_10<19] yes=15,no=16,missing=15
				15:leaf=0.0208085
				16:leaf=-0.0353723
			8:[Col_18<2] yes=17,no=18,missing=17
				17:leaf=0.00839129
				18:leaf=0.0394931
		4:[Col_7<14] yes=9,no=10,missing=9
			9:[Col_11=c] yes=20,no=19
				19:leaf=-0.0160416
				20:leaf=-0.060938
			10:[Col_1<18] yes=21,no=22,missing=21
				21:leaf=-0.0066671
				22:leaf=0.0479837
	2:[Col_29=c] yes=6,no=5
		5:[Col_16<9] yes=11,no=12,missing=11
			11:[Col_1<11] yes=23,no=24,missing=23
				23:leaf=-0.0855305
				24:leaf=0.066316
			12:[Col_15=k] yes=26,no=25
				25:leaf=0.0412511
				26:leaf=0.149652
		6:[Col_1<13] yes=13,no=14,missing=13
			13:[Col_27=f] yes=28,no=27
				27:leaf=0.138578
				28:leaf=0.617308
			14:[Col_20=a] yes=30,no=29
				29:leaf=0.321486
				30:leaf=-0.174296
booster[40]:
0:[Col_12=f] yes=2,no=1
	1:[Col_12=e] yes=4,no=3
		3:[Col_10<16] yes=7,no=8,missing=7
			7:[Col_16<20] yes=15,no=16,missing=15
				15:leaf=0.00461871
				16:leaf=-0.0511915
			8:[Col_28=h] yes=18,no=17
				17:leaf=-0.0194793
				18:leaf=0.194371
		4:[Col_16<10] yes=9,no=10,missing=9
			9:[Col_20=a] yes=20,no=19
				19:leaf=0.0581138
				20:leaf=-0.0475674
			10:[Col_13<2] yes=21,no=22,missing=21
				21:leaf=0.201952
				22:leaf=-0.0922392
	2:[Col_11=d] yes=6,no=5
		5:[Col_15=k] yes=12,no=11
			11:[Col_26<7] yes=23,no=24,missing=23
				23:leaf=-0.0164396
				24:leaf=0.00723196
			12:[Col_10<2] yes=25,no=26,missing=25
				25:leaf=0.311484
				26:leaf=0.0261103
		6:[Col_16<5] yes=13,no=14,missing=13
			13:[Col_4=a] yes=28,no=27
				27:leaf=0.502327
				28:leaf=0.114511
			14:[Col_8=e] yes=30,no=29
				29:leaf=0.0117339
				30:leaf=0.0465083
booster[41]:
0:[Col_14<86] yes=1,no=2,missing=1
	1:[Col_17=i] yes=4,no=3
		3:[Col_7<10] yes=7,no=8,missing=7
			7:[Col_1<20] yes=15,no=16,missing=15
				15:leaf=0.00854095
				16:leaf=0.0735992
			8:[Col_7<14] yes=17,no=18,missing=17
				17:leaf=-0.0302939
				18:leaf=0.00399892
		4:[Col_1<6] yes=9,no=10,missing=9
			9:[Col_16<12] yes=19,no=20,missing=19
				19:leaf=-0.0420302
				20:leaf=0.0522962
			10:[Col_14<8] yes=21,no=22,missing=21
				21:leaf=0.394548
				22:leaf=0.0412845
	2:[Col_26<13] yes=5,no=6,missing=5
		5:[Col_6<7] yes=11,no=12,missing=11
			11:[Col_1<1] yes=23,no=24,missing=23
				23:leaf=0.180436
				24:leaf=-0.00451081
			12:[Col_18<2] yes=25,no=26,missing=25
				25:leaf=-0.0244777
				26:leaf=0.421328
		6:[Col_16<14] yes=13,no=14,missing=13
			13:[Col_18<2] yes=27,no=28,missing=27
				27:leaf=-0.0447686
				28:leaf=0.0304698
			14:[Col_17=a] yes=30,no=29
				29:leaf=-0.0897438
				30:leaf=0.169763
booster[42]:
0:[Col_12=a] yes=2,no=1
	1:[Col_26<18] yes=3,no=4,missing=3
		3:[Col_7<10] yes=7,no=8,missing=7
			7:[Col_7<3] yes=15,no=16,missing=15
				15:leaf=-0.00914263
				16:leaf=0.0383496
			8:[Col_28=b] yes=18,no=17
				17:leaf=-0.0051731
				18:leaf=0.102776
		4:[Col_4=a] yes=10,no=9
			9:[Col_31<11] yes=19,no=20,missing=19
				19:leaf=-0.0626082
				20:leaf=0.112241
			10:[Col_16<6] yes=21,no=22,missing=21
				21:leaf=0.157511
				22:leaf=-0.0678523
	2:[Col_7<16] yes=5,no=6,missing=5
		5:[Col_23<1] yes=11,no=12,missing=11
			11:leaf=0.401578
			12:[Col_7<5] yes=23,no=24,missing=23
				23:leaf=0.0141671
				24:leaf=-0.0313548
		6:[Col_16<16] yes=13,no=14,missing=13
			13:[Col_16<10] yes=25,no=26,missing=25
				25:leaf=0.0191204
				26:leaf=0.122592
			14:[Col_8=d] yes=28,no=27
				27:leaf=-0.0924938
				28:leaf=0.199839
booster[43]:
0:[Col_11=a] yes=2,no=1
	1:[Col_14<88] yes=3,no=4,missing=3
		3:[Col_10<1] yes=7,no=8,missing=7
			7:[Col_3=b] yes=16,no=15
				15:leaf=0.022594
				16:leaf=0.0888117
			8:[Col_3=b] yes=18,no=17
				17:leaf=0.0150703
				18:leaf=-0.0218704
		4:[Col_6<3] yes=9,no=10,missing=9
			9:[Col_27=f] yes=20,no=19
				19:leaf=-0.0174259
				20:leaf=-0.0699536
			10:[Col_7<3] yes=21,no=22,missing=21
				21:leaf=-0.0634943
				22:leaf=0.00474272
	2:[Col_7<18] yes=5,no=6,missing=5
		5:[Col_6<5] yes=11,no=12,missing=11
			11:[Col_15=c] yes=24,no=23
				23:leaf=-0.0316687
				24:leaf=-0.101673
			12:[Col_7<14] yes=25,no=26,missing=25
				25:leaf=0.0463738
				26:leaf=-0.154507
		6:[Col_18<2] yes=13,no=14,missing=13
			13:[Col_16<16] yes=27,no=28,missing=27
				27:leaf=-0.123193
				28:leaf=-0.237858
			14:leaf=-0.104309
booster[44]:
0:[Col_9=c] yes=2,no=1
	1:[Col_10<5] yes=3,no=4,missing=3
		3:[Col_15=k] yes=8,no=7
			7:[Col_14<7] yes=13,no=14,missing=13
				13:leaf=0.20715
				14:leaf=0.00936347
			8:[Col_7<18] yes=15,no=16,missing=15
				15:leaf=0.0528651
				16:leaf=0.269617
		4:[Col_16<2] yes=9,no=10,missing=9
			9:leaf=0.376362
			10:[Col_26<18] yes=17,no=18,missing=17
				17:leaf=-8.93648e-05
				18:leaf=-0.0484572
	2:[Col_21<1] yes=5,no=6,missing=5
		5:leaf=-0.339884
		6:[Col_21<3] yes=11,no=12,missing=11
			11:[Col_22=a] yes=20,no=19
				19:leaf=0.789527
				20:leaf=0.0293111
			12:[Col_14<37] yes=21,no=22,missing=21
				21:leaf=0.376778
				22:leaf=0.0417043
booster[45]:
0:[Col_10<2] yes=1,no=2,missing=1
	1:[Col_3=a] yes=4,no=3
		3:[Col_31<8] yes=7,no=8,missing=7
			7:[Col_11=d] yes=16,no=15
				15:leaf=0.0430799
				16:leaf=-0.0355136
			8:[Col_13<1] yes=17,no=18,missing=17
				17:leaf=0.0255292
				18:leaf=0.0952289
		4:[Col_16<24] yes=9,no=10,missing=9
			9:[Col_13<2] yes=19,no=20,missing=19
				19:leaf=-0.00538073
				20:leaf=0.0721481
			10:[Col_1<20] yes=21,no=22,missing=21
				21:leaf=-0.206616
				22:leaf=-0.0243576
	2:[Col_1<5] yes=5,no=6,missing=5
		5:[Col_16<10] yes=11,no=12,missing=11
			11:[Col_11=c] yes=24,no=23
				23:leaf=-0.0690275
				24:leaf=-0.0238989
			12:[Col_17=g] yes=26,no=25
				25:leaf=-0.000666783
				26:leaf=0.101765
		6:[Col_16<16] yes=13,no=14,missing=13
			13:[Col_17=i] yes=28,no=27
				27:leaf=-0.000927548
				28:leaf=0.0308849
			14:[Col_9=c] yes=30,no=29
				29:leaf=-0.022674
				30:leaf=0.161006
booster[46]:
0:[Col_29=c] yes=2,no=1
	1:[Col_19<3] yes=3,no=4,missing=3
		3:[Col_9=c] yes=8,no=7
			7:[Col_26<14] yes=15,no=16,missing=15
				15:leaf=-0.0031605
				16:leaf=-0.0311567
			8:[Col_10<4] yes=17,no=18,missing=17
				17:leaf=0.353474
				18:leaf=0.00992894
		4:[Col_12=e] yes=10,no=9
			9:[Col_28=f] yes=20,no=19
				19:leaf=0.0131974
				20:leaf=-0.06192
			10:[Col_26<17] yes=21,no=22,missing=21
				21:leaf=0.179002
				22:leaf=-0.0419291
	2:[Col_8=c] yes=6,no=5
		5:[Col_19<10] yes=11,no=12,missing=11
			11:[Col_10<3] yes=23,no=24,missing=23
				23:leaf=-0.162536
				24:leaf=0.0449502
			12:[Col_26<16] yes=25,no=26,missing=25
				25:leaf=0.512506
				26:leaf=0.0442123
		6:[Col_22=a] yes=14,no=13
			13:[Col_19<4] yes=27,no=28,missing=27
				27:leaf=0.234475
				28:leaf=1.0739
			14:[Col_10<19] yes=29,no=30,missing=29
				29:leaf=-0.00993262
				30:leaf=0.540462
booster[47]:
0:[Col_11=a] yes=2,no=1
	1:[Col_26<6] yes=3,no=4,missing=3
		3:[Col_17=f] yes=8,no=7
			7:[Col_18<2] yes=15,no=16,missing=15
				15:leaf=-0.0110636
				16:leaf=0.0215973
			8:[Col_3=d] yes=18,no=17
				17:leaf=-0.0337203
				18:leaf=0.334296
		4:[Col_26<14] yes=9,no=10,missing=9
			9:[Col_29=c] yes=20,no=19
				19:leaf=0.0141773
				20:leaf=0.115586
			10:[Col_9=c] yes=22,no=21
				21:leaf=-0.0110138
				22:leaf=0.148357
	2:[Col_7<18] yes=5,no=6,missing=5
		5:[Col_24=a] yes=12,no=11
			11:[Col_6<5] yes=23,no=24,missing=23
				23:leaf=-0.039179
				24:leaf=0.0250298
			12:[Col_7<10] yes=25,no=26,missing=25
				25:leaf=0.126332
				26:leaf=-0.032224
		6:[Col_26<8] yes=13,no=14,missing=13
			13:leaf=-0.0676982
			14:[Col_20=a] yes=28,no=27
				27:leaf=-0.122951
				28:leaf=-0.210155
booster[48]:
0:[Col_23<2] yes=1,no=2,missing=1
	1:[Col_7<10] yes=3,no=4,missing=3
		3:[Col_7<9] yes=7,no=8,missing=7
			7:[Col_27=d] yes=16,no=15
				15:leaf=0.0141325
				16:leaf=0.148264
			8:[Col_8=b] yes=18,no=17
				17:leaf=0.0644563
				18:leaf=0.511388
		4:[Col_7<14] yes=9,no=10,missing=9
			9:[Col_11=c] yes=20,no=19
				19:leaf=0.00170055
				20:leaf=-0.0444596
			10:[Col_17=i] yes=22,no=21
				21:leaf=-0.000425328
				22:leaf=0.0550399
	2:[Col_7<3] yes=5,no=6,missing=5
		5:[Col_21<5] yes=11,no=12,missing=11
			11:[Col_11=c] yes=24,no=23
				23:leaf=-0.046772
				24:leaf=0.00806852
			12:[Col_15=k] yes=26,no=25
				25:leaf=-0.0554863
				26:leaf=-0.138525
		6:[Col_7<4] yes=13,no=14,missing=13
			13:[Col_27=j] yes=28,no=27
				27:leaf=0.0281263
				28:leaf=0.33206
			14:[Col_17=d] yes=30,no=29
				29:leaf=-0.0102181
				30:leaf=0.177313
booster[49]:
0:[Col_29=c] yes=2,no=1
	1:[Col_1<19] yes=3,no=4,missing=3
		3:[Col_6<8] yes=7,no=8,missing=7
			7:[Col_17=d] yes=16,no=15
				15:leaf=-0.00279994
				16:leaf=0.150052
			8:[Col_21<3] yes=17,no=18,missing=17
				17:leaf=0.374886
				18:leaf=0.0568445
		4:[Col_16<6] yes=9,no=10,missing=9
			9:[Col_6<2] yes=19,no=20,missing=19
				19:leaf=0.514598
				20:leaf=0.0508464
			10:[Col_5<1] yes=21,no=22,missing=21
				21:leaf=0.0281954
				22:leaf=-0.0655575
	2:[Col_26<14] yes=5,no=6,missing=5
		5:[Col_22=b] yes=12,no=11
			11:[Col_10<20] yes=23,no=24,missing=23
				23:leaf=0.0084183
				24:leaf=0.291514
			12:[Col_8=c] yes=26,no=25
				25:leaf=0.0810973
				26:leaf=0.692403
		6:[Col_10<19] yes=13,no=14,missing=13
			13:[Col_26<15] yes=27,no=28,missing=27
				27:leaf=-0.284329
				28:leaf=-0.0534379
			14:[Col_1<17] yes=29,no=30,missing=29
				29:leaf=-0.0143798
				30:leaf=0.66412
booster[50]:
0:[Col_23<2] yes=1,no=2,missing=1
	1:[Col_16<4] yes=3,no=4,missing=3
		3:[Col_15=r] yes=8,no=7
			7:[Col_30<8] yes=15,no=16,missing=15
				15:leaf=0.417535
				16:leaf=0.167612
			8:leaf=0.0185993
		4:[Col_29=c] yes=10,no=9
			9:[Col_28=b] yes=18,no=17
				17:leaf=0.0043606
				18:leaf=0.0568097
			10:[Col_16<11] yes=19,no=20,missing=19
				19:leaf=0.129592
				20:leaf=0.0188147
	2:[Col_26<17] yes=5,no=6,missing=5
		5:[Col_19<4] yes=11,no=12,missing=11
			11:[Col_27=j] yes=22,no=21
				21:leaf=-0.021067
				22:leaf=0.0259077
			12:[Col_28=h] yes=24,no=23
				23:leaf=0.013471
				24:leaf=0.345873
		6:[Col_30<8] yes=13,no=14,missing=13
			13:[Col_15=n] yes=26,no=25
				25:leaf=-0.108489
				26:leaf=0.0689384
			14:[Col_8=d] yes=28,no=27
				27:leaf=-0.0410447
				28:leaf=0.0661774
booster[51]:
0:[Col_12=e] yes=2,no=1
	1:[Col_14<45] yes=3,no=4,missing=3
		3:[Col_26<6] yes=7,no=8,missing=7
			7:[Col_14<13] yes=15,no=16,missing=15
				15:leaf=0.0846932
				16:leaf=-0.0164165
			8:[Col_15=b] yes=18,no=17
				17:leaf=0.0320546
				18:leaf=-0.00966786
		4:[Col_16<18] yes=9,no=10,missing=9
			9:[Col_18<2] yes=19,no=20,missing=19
				19:leaf=-0.0101715
				20:leaf=0.0138465
			10:[Col_6<7] yes=21,no=22,missing=21
				21:leaf=-0.0365313
				22:leaf=0.170051
	2:[Col_16<10] yes=5,no=6,missing=5
		5:[Col_15=k] yes=12,no=11
			11:[Col_14<52] yes=23,no=24,missing=23
				23:leaf=0.0704112
				24:leaf=-0.067799
			12:[Col_26<10] yes=25,no=26,missing=25
				25:leaf=0.409118
				26:leaf=0.0161185
		6:[Col_26<17] yes=13,no=14,missing=13
			13:[Col_6<2] yes=27,no=28,missing=27
				27:leaf=0.085583
				28:leaf=0.315223
			14:leaf=-0.103829
booster[52]:
0:[Col_9=c] yes=2,no=1
	1:[Col_19<6] yes=3,no=4,missing=3
		3:[Col_1<18] yes=7,no=8,missing=7
			7:[Col_4=a] yes=16,no=15
				15:leaf=-0.0244705
				16:leaf=-0.00325514
			8:[Col_16<11] yes=17,no=18,missing=17
				17:leaf=0.0675969
				18:leaf=-0.00464257
		4:[Col_6<7] yes=9,no=10,missing=9
			9:[Col_1<22] yes=19,no=20,missing=19
				19:leaf=0.0120563
				20:leaf=0.140844
			10:[Col_10<5] yes=21,no=22,missing=21
				21:leaf=0.337678
				22:leaf=0.0938989
	2:[Col_1<20] yes=5,no=6,missing=5
		5:[Col_12=h] yes=12,no=11
			11:[Col_18<2] yes=23,no=24,missing=23
				23:leaf=-0.0490016
				24:leaf=0.138997
			12:leaf=0.400846
		6:[Col_16<18] yes=13,no=14,missing=13
			13:leaf=0.592052
			14:leaf=-0.0541325
booster[53]:
0:[Col_26<17] yes=1,no=2,missing=1
	1:[Col_29=c] yes=4,no=3
		3:[Col_14<13] yes=7,no=8,missing=7
			7:[Col_10<8] yes=15,no=16,missing=15
				15:leaf=0.0979689
				16:leaf=0.0198993
			8:[Col_28=h] yes=18,no=17
				17:leaf=0.0012954
				18:leaf=0.111694
		4:[Col_27=f] yes=10,no=9
			9:[Col_15=n] yes=20,no=19
				19:leaf=0.0143513
				20:leaf=-0.310146
			10:[Col_24=c] yes=22,no=21
				21:leaf=0.123555
				22:leaf=0.823
	2:[Col_29=c] yes=6,no=5
		5:[Col_11=e] yes=12,no=11
			11:[Col_28=c] yes=24,no=23
				23:leaf=-0.0364639
				24:leaf=0.132909
			12:[Col_14<70] yes=25,no=26,missing=25
				25:leaf=0.169323
				26:leaf=0.00789771
		6:[Col_7<17] yes=13,no=14,missing=13
			13:[Col_21<2] yes=27,no=28,missing=27
				27:leaf=0.0258742
				28:leaf=-0.316131
			14:leaf=0.169786
booster[54]:
0:[Col_10<5] yes=1,no=2,missing=1
	1:[Col_6<5] yes=3,no=4,missing=3
		3:[Col_1<23] yes=7,no=8,missing=7
			7:[Col_17=b] yes=16,no=15
				15:leaf=0.00879637
				16:leaf=0.0578822
			8:[Col_20=a] yes=18,no=17
				17:leaf=0.271808
				18:leaf=0.0209996
		4:[Col_19<5] yes=9,no=10,missing=9
			9:[Col_28=b] yes=20,no=19
				19:leaf=0.0311537
				20:leaf=-0.181295
			10:[Col_30<8] yes=21,no=22,missing=21
				21:leaf=0.24113
				22:leaf=0.0576746
	2:[Col_7<11] yes=5,no=6,missing=5
		5:[Col_1<20] yes=11,no=12,missing=11
			11:[Col_8=b] yes=24,no=23
				23:leaf=0.000390814
				24:leaf=0.11245
			12:[Col_29=d] yes=26,no=25
				25:leaf=0.067484
				26:leaf=-0.149327
		6:[Col_7<14] yes=13,no=14,missing=13
			13:[Col_15=p] yes=28,no=27
				27:leaf=-0.0490919
				28:leaf=0.111014
			14:[Col_3=b] yes=30,no=29
				29:leaf=0.0130708
				30:leaf=-0.0469463
booster[55]:
0:[Col_26<17] yes=1,no=2,missing=1
	1:[Col_8=a] yes=4,no=3
		3:[Col_28=b] yes=8,no=7
			7:[Col_28=a] yes=16,no=15
				15:leaf=-0.0290175
				16:leaf=0.00965706
			8:[Col_19<10] yes=17,no=18,missing=17
				17:leaf=0.0451557
				18:leaf=0.372252
		4:[Col_1<20] yes=9,no=10,missing=9
			9:[Col_17=f] yes=20,no=19
				19:leaf=-0.0133696
				20:leaf=-0.0421263
			10:[Col_19<5] yes=21,no=22,missing=21
				21:leaf=0.00424574
				22:leaf=0.255482
	2:[Col_16<11] yes=5,no=6,missing=5
		5:[Col_1<17] yes=11,no=12,missing=11
			11:[Col_9=b] yes=24,no=23
				23:leaf=0.0920892
				24:leaf=-0.0380773
			12:[Col_23<2] yes=25,no=26,missing=25
				25:leaf=0.0654645
				26:leaf=-0.0322048
		6:[Col_14<70] yes=13,no=14,missing=13
			13:[Col_11=c] yes=28,no=27
				27:leaf=-9.85797e-05
				28:leaf=-0.0692057
			14:[Col_2<9] yes=29,no=30,missing=29
				29:leaf=-0.10304
				30:leaf=-0.0241372
booster[56]:
0:[Col_26<17] yes=1,no=2,missing=1
	1:[Col_12=e] yes=4,no=3
		3:[Col_26<7] yes=7,no=8,missing=7
			7:[Col_18<3] yes=15,no=16,missing=15
				15:leaf=-0.0156675
				16:leaf=0.00872087
			8:[Col_4=a] yes=18,no=17
				17:leaf=-0.0115372
				18:leaf=0.0112791
		4:[Col_16<10] yes=9,no=10,missing=9
			9:[Col_2<4] yes=19,no=20,missing=19
				19:leaf=0.0797497
				20:leaf=-0.0489562
			10:[Col_15=i] yes=22,no=21
				21:leaf=0.226047
				22:leaf=-0.0244326
	2:[Col_29=c] yes=6,no=5
		5:[Col_11=e] yes=12,no=11
			11:[Col_16<8] yes=23,no=24,missing=23
				23:leaf=0.0051586
				24:leaf=-0.0355724
			12:[Col_7<7] yes=25,no=26,missing=25
				25:leaf=-0.0227166
				26:leaf=0.126245
		6:[Col_26<18] yes=13,no=14,missing=13
			13:leaf=-0.322017
			14:[Col_1<16] yes=27,no=28,missing=27
				27:leaf=0.0413061
				28:leaf=-0.24611
booster[57]:
0:[Col_23<1] yes=1,no=2,missing=1
	1:[Col_14<55] yes=3,no=4,missing=3
		3:[Col_26<11] yes=7,no=8,missing=7
			7:[Col_11=c] yes=16,no=15
				15:leaf=-0.211199
				16:leaf=-0.0064878
			8:leaf=0.156379
		4:[Col_11=d] yes=10,no=9
			9:[Col_8=e] yes=18,no=17
				17:leaf=-0.172279
				18:leaf=0.295796
			10:leaf=0.5926
	2:[Col_14<88] yes=5,no=6,missing=5
		5:[Col_7<10] yes=11,no=12,missing=11
			11:[Col_7<8] yes=19,no=20,missing=19
				19:leaf=0.00485274
				20:leaf=0.0421159
			12:[Col_28=b] yes=22,no=21
				21:leaf=-0.00718229
				22:leaf=0.0766828
		6:[Col_26<13] yes=13,no=14,missing=13
			13:[Col_2<4] yes=23,no=24,missing=23
				23:leaf=-0.032862
				24:leaf=0.0291912
			14:[Col_27=f] yes=26,no=25
				25:leaf=-0.0204011
				26:leaf=-0.0707909
booster[58]:
0:[Col_6<8] yes=1,no=2,missing=1
	1:[Col_6<3] yes=3,no=4,missing=3
		3:[Col_16<3] yes=7,no=8,missing=7
			7:[Col_7<6] yes=13,no=14,missing=13
				13:leaf=0.0177735
				14:leaf=0.335857
			8:[Col_28=e] yes=16,no=15
				15:leaf=-0.00585682
				16:leaf=-0.0878313
		4:[Col_1<5] yes=9,no=10,missing=9
			9:[Col_12=h] yes=18,no=17
				17:leaf=-0.0566436
				18:leaf=0.228606
			10:[Col_7<2] yes=19,no=20,missing=19
				19:leaf=-0.0276351
				20:leaf=0.0147517
	2:[Col_28=a] yes=6,no=5
		5:[Col_1<17] yes=11,no=12,missing=11
			11:[Col_2<6] yes=21,no=22,missing=21
				21:leaf=-0.0414073
				22:leaf=0.412564
			12:[Col_26<13] yes=23,no=24,missing=23
				23:leaf=0.0497892
				24:leaf=-0.143281
		6:leaf=0.425511
booster[59]:
0:[Col_6<3] yes=1,no=2,missing=1
	1:[Col_11=e] yes=4,no=3
		3:[Col_7<17] yes=7,no=8,missing=7
			7:[Col_23<1] yes=15,no=16,missing=15
				15:leaf=0.215123
				16:leaf=-0.0102293
			8:[Col_27=j] yes=18,no=17
				17:leaf=0.0106686
				18:leaf=0.119823
		4:[Col_12=c] yes=10,no=9
			9:[Col_13<1] yes=19,no=20,missing=19
				19:leaf=0.101189
				20:leaf=0.0212406
			10:[Col_15=r] yes=22,no=21
				21:leaf=-0.0197371
				22:leaf=-0.222727
	2:[Col_1<7] yes=5,no=6,missing=5
		5:[Col_15=e] yes=12,no=11
			11:[Col_14<43] yes=23,no=24,missing=23
				23:leaf=0.00937894
				24:leaf=-0.0345507
			12:[Col_10<16] yes=25,no=26,missing=25
				25:leaf=0.160533
				26:leaf=-0.0455585
		6:[Col_14<12] yes=13,no=14,missing=13
			13:[Col_12=h] yes=28,no=27
				27:leaf=0.101766
				28:leaf=0.657346
			14:[Col_11=d] yes=30,no=29
				29:leaf=0.00460934
				30:leaf=0.0333512
booster[60]:
0:[Col_14<45] yes=1,no=2,missing=1
	1:[Col_17=a] yes=4,no=3
		3:[Col_26<19] yes=7,no=8,missing=7
			7:[Col_6<2] yes=15,no=16,missing=15
				15:leaf=0.00616208
				16:leaf=0.0352754
			8:[Col_7<11] yes=17,no=18,missing=17
				17:leaf=-0.0450552
				18:leaf=-0.166808
		4:[Col_12=c] yes=10,no=9
			9:[Col_32=b] yes=20,no=19
				19:leaf=-0.0429219
				20:leaf=-0.00826424
			10:[Col_6<3] yes=21,no=22,missing=21
				21:leaf=0.20321
				22:leaf=-0.0965154
	2:[Col_20=a] yes=6,no=5
		5:[Col_14<98] yes=11,no=12,missing=11
			11:[Col_7<3] yes=23,no=24,missing=23
				23:leaf=-0.0458777
				24:leaf=-0.00910889
			12:[Col_31<17] yes=25,no=26,missing=25
				25:leaf=-0.105562
				26:leaf=0.0104284
		6:[Col_15=k] yes=14,no=13
			13:[Col_26<8] yes=27,no=28,missing=27
				27:leaf=-0.0178471
				28:leaf=0.00488608
			14:[Col_6<7] yes=29,no=30,missing=29
				29:leaf=0.0279363
				30:leaf=0.287842
booster[61]:
0:[Col_14<70] yes=1,no=2,missing=1
	1:[Col_1<19] yes=3,no=4,missing=3
		3:[Col_3=b] yes=8,no=7
			7:[Col_16<27] yes=15,no=16,missing=15
				15:leaf=0.00803702
				16:leaf=-0.121763
			8:[Col_10<1] yes=17,no=18,missing=17
				17:leaf=0.0500946
				18:leaf=-0.020173
		4:[Col_11=d] yes=10,no=9
			9:[Col_14<21] yes=19,no=20,missing=19
				19:leaf=0.143905
				20:leaf=-0.00765452
			10:[Col_22=a] yes=22,no=21
				21:leaf=0.135185
				22:leaf=0.0399375
	2:[Col_3=b] yes=6,no=5
		5:[Col_3=c] yes=12,no=11
			11:[Col_3=d] yes=24,no=23
				23:leaf=-0.0225865
				24:leaf=0.103072
			12:[Col_1<7] yes=25,no=26,missing=25
				25:leaf=-0.0445385
				26:leaf=0.0289768
		6:[Col_10<6] yes=13,no=14,missing=13
			13:[Col_26<10] yes=27,no=28,missing=27
				27:leaf=0.117649
				28:leaf=-0.0149344
			14:[Col_16<12] yes=29,no=30,missing=29
				29:leaf=0.0109756
				30:leaf=-0.0626745
booster[62]:
0:[Col_8=a] yes=2,no=1
	1:[Col_12=f] yes=4,no=3
		3:[Col_17=i] yes=8,no=7
			7:[Col_12=h] yes=16,no=15
				15:leaf=-0.00360167
				16:leaf=0.0266898
			8:[Col_16<16] yes=17,no=18,missing=17
				17:leaf=-0.0188772
				18:leaf=-0.0770793
		4:[Col_27=f] yes=10,no=9
			9:[Col_26<17] yes=19,no=20,missing=19
				19:leaf=0.00820782
				20:leaf=-0.047404
			10:[Col_29=c] yes=22,no=21
				21:leaf=0.0346821
				22:leaf=0.184065
	2:[Col_29=c] yes=6,no=5
		5:[Col_10<4] yes=11,no=12,missing=11
			11:[Col_24=a] yes=24,no=23
				23:leaf=0.011281
				24:leaf=0.240567
			12:[Col_1<20] yes=25,no=26,missing=25
				25:leaf=-0.0225986
				26:leaf=0.0332612
		6:[Col_2<6] yes=13,no=14,missing=13
			13:[Col_13<2] yes=27,no=28,missing=27
				27:leaf=-0.0293325
				28:leaf=0.342431
			14:[Col_7<3] yes=29,no=30,missing=29
				29:leaf=0.0435463
				30:leaf=-0.210025
booster[63]:
0:[Col_29=c] yes=2,no=1
	1:[Col_14<70] yes=3,no=4,missing=3
		3:[Col_1<21] yes=7,no=8,missing=7
			7:[Col_18<1] yes=13,no=14,missing=13
				13:leaf=-0.0147958
				14:leaf=0.00700593
			8:[Col_9=c] yes=16,no=15
				15:leaf=0.0361544
				16:leaf=0.503604
		4:[Col_3=a] yes=10,no=9
			9:[Col_1<14] yes=17,no=18,missing=17
				17:leaf=-0.00739235
				18:leaf=0.0380155
			10:[Col_17=d] yes=20,no=19
				19:leaf=-0.0210638
				20:leaf=0.21747
	2:[Col_1<1] yes=5,no=6,missing=5
		5:leaf=-0.280768
		6:[Col_1<9] yes=11,no=12,missing=11
			11:[Col_22=a] yes=22,no=21
				21:leaf=0.319745
				22:leaf=0.0581459
			12:[Col_10<18] yes=23,no=24,missing=23
				23:leaf=-0.0281375
				24:leaf=0.181543
booster[64]:
0:[Col_18<1] yes=1,no=2,missing=1
	1:[Col_29=c] yes=4,no=3
		3:[Col_27=f] yes=8,no=7
			7:[Col_15=l] yes=16,no=15
				15:leaf=-0.0215342
				16:leaf=0.129449
			8:[Col_31<8] yes=17,no=18,missing=17
				17:leaf=0.061005
				18:leaf=-0.0149138
		4:[Col_31<2] yes=9,no=10,missing=9
			9:leaf=-0.451526
			10:[Col_2<1] yes=19,no=20,missing=19
				19:leaf=-0.355499
				20:leaf=-0.0113788
	2:[Col_27=d] yes=6,no=5
		5:[Col_14<89] yes=11,no=12,missing=11
			11:[Col_28=b] yes=22,no=21
				21:leaf=0.00400434
				22:leaf=0.0577238
			12:[Col_15=p] yes=24,no=23
				23:leaf=-0.0197526
				24:leaf=0.155323
		6:[Col_31<2] yes=13,no=14,missing=13
			13:leaf=0.368734
			14:[Col_15=d] yes=26,no=25
				25:leaf=0.0413795
				26:leaf=0.367202
booster[65]:
0:[Col_24=c] yes=2,no=1
	1:[Col_17=b] yes=4,no=3
		3:[Col_26<7] yes=7,no=8,missing=7
			7:[Col_14<13] yes=15,no=16,missing=15
				15:leaf=0.0387525
				16:leaf=-0.0160448
			8:[Col_14<69] yes=17,no=18,missing=17
				17:leaf=0.0111843
				18:leaf=-0.0102886
		4:[Col_15=i] yes=10,no=9
			9:[Col_1<9] yes=19,no=20,missing=19
				19:leaf=0.0424732
				20:leaf=-0.0103404
			10:[Col_14<33] yes=21,no=22,missing=21
				21:leaf=0.164933
				22:leaf=0.0362319
	2:[Col_18<2] yes=5,no=6,missing=5
		5:[Col_26<14] yes=11,no=12,missing=11
			11:[Col_1<22] yes=23,no=24,missing=23
				23:leaf=0.047429
				24:leaf=-0.261544
			12:[Col_14<88] yes=25,no=26,missing=25
				25:leaf=-0.139157
				26:leaf=0.134791
		6:[Col_26<6] yes=13,no=14,missing=13
			13:[Col_2<6] yes=27,no=28,missing=27
				27:leaf=0.0655874
				28:leaf=-0.175065
			14:[Col_27=b] yes=30,no=29
				29:leaf=0.281758
				30:leaf=-0.0646481
booster[66]:
0:[Col_14<44] yes=1,no=2,missing=1
	1:[Col_19<1] yes=3,no=4,missing=3
		3:[Col_3=d] yes=8,no=7
			7:[Col_25=a] yes=16,no=15
				15:leaf=0.0751527
				16:leaf=-0.0202693
			8:[Col_11=d] yes=18,no=17
				17:leaf=0.0200565
				18:leaf=0.359828
		4:[Col_7<1] yes=9,no=10,missing=9
			9:[Col_18<5] yes=19,no=20,missing=19
				19:leaf=-0.0256921
				20:leaf=0.13531
			10:[Col_27=f] yes=22,no=21
				21:leaf=0.0294787
				22:leaf=0.068001
	2:[Col_11=e] yes=6,no=5
		5:[Col_13<4] yes=11,no=12,missing=11
			11:[Col_18<6] yes=23,no=24,missing=23
				23:leaf=-0.00645838
				24:leaf=0.145062
			12:[Col_7<10] yes=25,no=26,missing=25
				25:leaf=-0.0063954
				26:leaf=-0.114054
		6:[Col_1<17] yes=13,no=14,missing=13
			13:[Col_8=e] yes=28,no=27
				27:leaf=-0.0607651
				28:leaf=0.0396713
			14:[Col_27=g] yes=30,no=29
				29:leaf=0.0684607
				30:leaf=0.506794
booster[67]:
0:[Col_19<6] yes=1,no=2,missing=1
	1:[Col_27=k] yes=4,no=3
		3:[Col_15=o] yes=8,no=7
			7:[Col_8=a] yes=16,no=15
				15:leaf=-0.000233287
				16:leaf=-0.0196356
			8:[Col_14<61] yes=17,no=18,missing=17
				17:leaf=0.238262
				18:leaf=-0.0139373
		4:[Col_14<35] yes=9,no=10,missing=9
			9:[Col_15=r] yes=20,no=19
				19:leaf=0.301159
				20:leaf=0.0438821
			10:[Col_1<16] yes=21,no=22,missing=21
				21:leaf=-0.0419047
				22:leaf=0.123398
	2:[Col_14<8] yes=5,no=6,missing=5
		5:[Col_27=f] yes=12,no=11
			11:leaf=0.0228615
			12:leaf=0.659729
		6:[Col_14<95] yes=13,no=14,missing=13
			13:[Col_8=c] yes=24,no=23
				23:leaf=0.0342229
				24:leaf=-0.0152802
			14:[Col_23<2] yes=25,no=26,missing=25
				25:leaf=-0.0214141
				26:leaf=-0.10125
booster[68]:
0:[Col_19<4] yes=1,no=2,missing=1
	1:[Col_16<2] yes=3,no=4,missing=3
		3:leaf=0.249815
		4:[Col_27=a] yes=8,no=7
			7:[Col_24=d] yes=14,no=13
				13:leaf=-0.000822329
				14:leaf=-0.041566
			8:[Col_24=c] yes=16,no=15
				15:leaf=-0.037924
				16:leaf=-0.271923
	2:[Col_14<48] yes=5,no=6,missing=5
		5:[Col_29=c] yes=10,no=9
			9:[Col_8=d] yes=18,no=17
				17:leaf=0.0449449
				18:leaf=-0.039016
			10:[Col_8=a] yes=20,no=19
				19:leaf=0.396497
				20:leaf=-0.158277
		6:[Col_16<8] yes=11,no=12,missing=11
			11:[Col_19<9] yes=21,no=22,missing=21
				21:leaf=0.015136
				22:leaf=0.0800949
			12:[Col_10<1] yes=23,no=24,missing=23
				23:leaf=0.0514036
				24:leaf=-0.0069199
booster[69]:
0:[Col_6<7] yes=1,no=2,missing=1
	1:[Col_15=a] yes=4,no=3
		3:[Col_28=e] yes=8,no=7
			7:[Col_28=f] yes=14,no=13
				13:leaf=0.00274271
				14:leaf=-0.0314616
			8:[Col_24=b] yes=16,no=15
				15:leaf=0.105714
				16:leaf=-0.0815402
		4:[Col_20=a] yes=10,no=9
			9:[Col_18<3] yes=17,no=18,missing=17
				17:leaf=-0.0149724
				18:leaf=0.0486555
			10:[Col_11=c] yes=20,no=19
				19:leaf=-0.111878
				20:leaf=-0.0401501
	2:[Col_18<4] yes=5,no=6,missing=5
		5:[Col_18<2] yes=11,no=12,missing=11
			11:[Col_21<3] yes=21,no=22,missing=21
				21:leaf=0.133068
				22:leaf=-0.0111819
			12:[Col_27=h] yes=24,no=23
				23:leaf=0.140546
				24:leaf=0.486534
		6:leaf=-0.15753
booster[70]:
0:[Col_14<86] yes=1,no=2,missing=1
	1:[Col_8=a] yes=4,no=3
		3:[Col_14<11] yes=7,no=8,missing=7
			7:[Col_6<5] yes=15,no=16,missing=15
				15:leaf=0.0381553
				16:leaf=0.53555
			8:[Col_18<1] yes=17,no=18,missing=17
				17:leaf=-0.00778439
				18:leaf=0.0104832
		4:[Col_17=f] yes=10,no=9
			9:[Col_12=h] yes=20,no=19
				19:leaf=-0.00223144
				20:leaf=0.059124
			10:[Col_27=j] yes=22,no=21
				21:leaf=-0.034902
				22:leaf=0.0406944
	2:[Col_29=b] yes=6,no=5
		5:[Col_1<14] yes=11,no=12,missing=11
			11:[Col_17=c] yes=24,no=23
				23:leaf=-0.130419
				24:leaf=0.0868372
			12:[Col_6<4] yes=25,no=26,missing=25
				25:leaf=-0.0562497
				26:leaf=0.0845143
		6:[Col_30<13] yes=13,no=14,missing=13
			13:[Col_14<99] yes=27,no=28,missing=27
				27:leaf=-0.0149971
				28:leaf=-0.0721919
			14:[Col_15=r] yes=30,no=29
				29:leaf=0.0246709
				30:leaf=-0.0531072
booster[71]:
0:[Col_16<20] yes=1,no=2,missing=1
	1:[Col_1<19] yes=3,no=4,missing=3
		3:[Col_24=c] yes=8,no=7
			7:[Col_18<5] yes=15,no=16,missing=15
				15:leaf=-0.00265925
				16:leaf=0.0463336
			8:[Col_27=j] yes=18,no=17
				17:leaf=0.0148917
				18:leaf=0.212205
		4:[Col_17=c] yes=10,no=9
			9:[Col_16<11] yes=19,no=20,missing=19
				19:leaf=0.0985338
				20:leaf=0.0280646
			10:[Col_7<10] yes=21,no=22,missing=21
				21:leaf=0.0318639
				22:leaf=-0.0359637
	2:[Col_6<4] yes=5,no=6,missing=5
		5:[Col_14<11] yes=11,no=12,missing=11
			11:leaf=0.226908
			12:[Col_14<33] yes=23,no=24,missing=23
				23:leaf=-0.0676298
				24:leaf=-0.00530981
		6:[Col_4=a] yes=14,no=13
			13:[Col_15=k] yes=26,no=25
				25:leaf=-0.13148
				26:leaf=-0.269101
			14:[Col_14<33] yes=27,no=28,missing=27
				27:leaf=-0.200342
				28:leaf=-0.0306537
booster[72]:
0:[Col_24=c] yes=2,no=1
	1:[Col_12=e] yes=4,no=3
		3:[Col_12=f] yes=8,no=7
			7:[Col_7<14] yes=15,no=16,missing=15
				15:leaf=-0.0129632
				16:leaf=0.0131058
			8:[Col_8=a] yes=18,no=17
				17:leaf=0.0126009
				18:leaf=-0.017845
		4:[Col_14<78] yes=9,no=10,missing=9
			9:[Col_19<4] yes=19,no=20,missing=19
				19:leaf=0.0488363
				20:leaf=0.221661
			10:[Col_15=r] yes=22,no=21
				21:leaf=0.00989387
				22:leaf=-0.241579
	2:[Col_7<9] yes=5,no=6,missing=5
		5:[Col_15=r] yes=12,no=11
			11:[Col_1<15] yes=23,no=24,missing=23
				23:leaf=-0.0411057
				24:leaf=0.0618046
			12:[Col_10<17] yes=25,no=26,missing=25
				25:leaf=-0.300393
				26:leaf=0.0243702
		6:[Col_8=c] yes=14,no=13
			13:[Col_16<6] yes=27,no=28,missing=27
				27:leaf=0.445495
				28:leaf=0.0517635
			14:[Col_27=f] yes=30,no=29
				29:leaf=0.0624146
				30:leaf=0.589853
booster[73]:
0:[Col_7<10] yes=1,no=2,missing=1
	1:[Col_7<8] yes=3,no=4,missing=3
		3:[Col_1<16] yes=7,no=8,missing=7
			7:[Col_31<5] yes=15,no=16,missing=15
				15:leaf=0.0140275
				16:leaf=-0.00974493
			8:[Col_20=a] yes=18,no=17
				17:leaf=0.00390231
				18:leaf=0.0395181
		4:[Col_27=b] yes=10,no=9
			9:[Col_8=b] yes=20,no=19
				19:leaf=0.0437409
				20:leaf=0.310037
			10:[Col_29=c] yes=22,no=21
				21:leaf=-0.0290081
				22:leaf=0.338244
	2:[Col_7<15] yes=5,no=6,missing=5
		5:[Col_9=c] yes=12,no=11
			11:[Col_28=a] yes=24,no=23
				23:leaf=-0.0609184
				24:leaf=-0.0178366
			12:[Col_26<15] yes=25,no=26,missing=25
				25:leaf=0.017123
				26:leaf=0.6465
		6:[Col_1<10] yes=13,no=14,missing=13
			13:[Col_10<11] yes=27,no=28,missing=27
				27:leaf=0.0153106
				28:leaf=-0.0385074
			14:[Col_6<4] yes=29,no=30,missing=29
				29:leaf=0.00842655
				30:leaf=0.0915845
booster[74]:
0:[Col_17=b] yes=2,no=1
	1:[Col_6<7] yes=3,no=4,missing=3
		3:[Col_7<10] yes=7,no=8,missing=7
			7:[Col_28=h] yes=16,no=15
				15:leaf=0.00195991
				16:leaf=0.207884
			8:[Col_7<14] yes=17,no=18,missing=17
				17:leaf=-0.0244624
				18:leaf=0.000347328
		4:[Col_7<16] yes=9,no=10,missing=9
			9:[Col_13<1] yes=19,no=20,missing=19
				19:leaf=0.138364
				20:leaf=-0.00167898
			10:[Col_13<1] yes=21,no=22,missing=21
				21:leaf=-0.0859805
				22:leaf=0.424039
	2:[Col_10<16] yes=5,no=6,missing=5
		5:[Col_14<37] yes=11,no=12,missing=11
			11:[Col_1<19] yes=23,no=24,missing=23
				23:leaf=0.0907909
				24:leaf=0.502824
			12:[Col_15=b] yes=26,no=25
				25:leaf=0.0421851
				26:leaf=-0.0302155
		6:[Col_13<1] yes=13,no=14,missing=13
			13:[Col_1<9] yes=27,no=28,missing=27
				27:leaf=-0.00280467
				28:leaf=-0.09671
			14:[Col_19<1] yes=29,no=30,missing=29
				29:leaf=-0.0400001
				30:leaf=0.0438488
booster[75]:
0:[Col_16<1] yes=1,no=2,missing=1
	1:leaf=0.326974
	2:[Col_27=i] yes=4,no=3
		3:[Col_26<4] yes=5,no=6,missing=5
			5:[Col_27=d] yes=10,no=9
				9:leaf=-0.0165263
				10:leaf=0.185667
			6:[Col_16<20] yes=11,no=12,missing=11
				11:leaf=0.0053096
				12:leaf=-0.0241453
		4:[Col_29=b] yes=8,no=7
			7:leaf=-0.194983
			8:[Col_10<18] yes=13,no=14,missing=13
				13:leaf=0.0781908
				14:leaf=0.286595
booster[76]:
0:[Col_17=d] yes=2,no=1
	1:[Col_11=e] yes=4,no=3
		3:[Col_13<4] yes=7,no=8,missing=7
			7:[Col_6<5] yes=15,no=16,missing=15
				15:leaf=-0.00274936
				16:leaf=0.0187972
			8:[Col_16<17] yes=17,no=18,missing=17
				17:leaf=-0.0228002
				18:leaf=-0.138598
		4:[Col_13<1] yes=9,no=10,missing=9
			9:[Col_14<14] yes=19,no=20,missing=19
				19:leaf=-0.166265
				20:leaf=0.0985479
			10:[Col_21<1] yes=21,no=22,missing=21
				21:leaf=0.119192
				22:leaf=-0.00476561
	2:[Col_16<11] yes=5,no=6,missing=5
		5:[Col_1<10] yes=11,no=12,missing=11
			11:leaf=0.443781
			12:[Col_1<17] yes=23,no=24,missing=23
				23:leaf=-0.0631363
				24:leaf=0.178801
		6:[Col_6<2] yes=13,no=14,missing=13
			13:leaf=0.202938
			14:leaf=-0.144555
booster[77]:
0:[Col_23<2] yes=1,no=2,missing=1
	1:[Col_16<5] yes=3,no=4,missing=3
		3:[Col_12=f] yes=8,no=7
			7:[Col_19<2] yes=15,no=16,missing=15
				15:leaf=0.138191
				16:leaf=-0.0511079
			8:[Col_1<17] yes=17,no=18,missing=17
				17:leaf=0.134432
				18:leaf=0.516576
		4:[Col_9=c] yes=10,no=9
			9:[Col_7<10] yes=19,no=20,missing=19
				19:leaf=0.0108929
				20:leaf=-0.00660794
			10:[Col_31<8] yes=21,no=22,missing=21
				21:leaf=-0.195308
				22:leaf=0.188378
	2:[Col_15=f] yes=6,no=5
		5:[Col_15=i] yes=12,no=11
			11:[Col_16<9] yes=23,no=24,missing=23
				23:leaf=-0.0247887
				24:leaf=-0.00656311
			12:[Col_7<14] yes=25,no=26,missing=25
				25:leaf=-0.00282256
				26:leaf=0.0448357
		6:[Col_10<15] yes=13,no=14,missing=13
			13:leaf=0.275246
			14:leaf=-0.0361437
booster[78]:
0:[Col_14<85] yes=1,no=2,missing=1
	1:[Col_16<4] yes=3,no=4,missing=3
		3:[Col_1<18] yes=7,no=8,missing=7
			7:[Col_3=a] yes=16,no=15
				15:leaf=0.165828
				16:leaf=0.00686175
			8:leaf=0.430355
		4:[Col_6<1] yes=9,no=10,missing=9
			9:[Col_28=h] yes=18,no=17
				17:leaf=-0.0121315
				18:leaf=0.379227
			10:[Col_19<7] yes=19,no=20,missing=19
				19:leaf=0.00255761
				20:leaf=0.0278946
	2:[Col_15=n] yes=6,no=5
		5:[Col_18<2] yes=11,no=12,missing=11
			11:[Col_16<28] yes=21,no=22,missing=21
				21:leaf=-0.0232284
				22:leaf=0.214876
			12:[Col_1<19] yes=23,no=24,missing=23
				23:leaf=0.0234231
				24:leaf=-0.069871
		6:[Col_19<7] yes=13,no=14,missing=13
			13:[Col_6<4] yes=25,no=26,missing=25
				25:leaf=-0.0846341
				26:leaf=0.0394986
			14:[Col_11=d] yes=28,no=27
				27:leaf=0.000559646
				28:leaf=-0.186096
booster[79]:
0:[Col_7<17] yes=1,no=2,missing=1
	1:[Col_7<11] yes=3,no=4,missing=3
		3:[Col_28=h] yes=8,no=7
			7:[Col_12=a] yes=16,no=15
				15:leaf=0.00700227
				16:leaf=-0.00937822
			8:[Col_16<9] yes=17,no=18,missing=17
				17:leaf=0.68337
				18:leaf=-0.0101115
		4:[Col_10<5] yes=9,no=10,missing=9
			9:[Col_24=d] yes=20,no=19
				19:leaf=0.00611906
				20:leaf=-0.104116
			10:[Col_7<15] yes=21,no=22,missing=21
				21:leaf=-0.0308259
				22:leaf=0.00409648
	2:[Col_19<9] yes=5,no=6,missing=5
		5:[Col_16<8] yes=11,no=12,missing=11
			11:[Col_1<11] yes=23,no=24,missing=23
				23:leaf=-0.0914068
				24:leaf=0.0163202
			12:[Col_7<18] yes=25,no=26,missing=25
				25:leaf=0.0713727
				26:leaf=0.00795406
		6:[Col_16<8] yes=13,no=14,missing=13
			13:[Col_26<14] yes=27,no=28,missing=27
				27:leaf=0.800838
				28:leaf=0.0985041
			14:[Col_1<22] yes=29,no=30,missing=29
				29:leaf=0.0274321
				30:leaf=0.453531
booster[80]:
0:[Col_18<2] yes=1,no=2,missing=1
	1:[Col_15=a] yes=4,no=3
		3:[Col_14<6] yes=7,no=8,missing=7
			7:[Col_16<13] yes=15,no=16,missing=15
				15:leaf=-0.146984
				16:leaf=0.0353424
			8:[Col_21<4] yes=17,no=18,missing=17
				17:leaf=0.00358177
				18:leaf=-0.0094993
		4:[Col_14<84] yes=9,no=10,missing=9
			9:[Col_9=d] yes=20,no=19
				19:leaf=-0.0523803
				20:leaf=0.0483231
			10:[Col_16<10] yes=21,no=22,missing=21
				21:leaf=0.104785
				22:leaf=-0.00924519
	2:[Col_28=b] yes=6,no=5
		5:[Col_16<17] yes=11,no=12,missing=11
			11:[Col_27=d] yes=24,no=23
				23:leaf=0.00925706
				24:leaf=0.166279
			12:[Col_8=a] yes=26,no=25
				25:leaf=-0.03218
				26:leaf=0.0319143
		6:[Col_10<3] yes=13,no=14,missing=13
			13:[Col_15=r] yes=28,no=27
				27:leaf=-0.139374
				28:leaf=0.0455171
			14:[Col_16<9] yes=29,no=30,missing=29
				29:leaf=-0.0270146
				30:leaf=0.186978
booster[81]:
0:[Col_14<45] yes=1,no=2,missing=1
	1:[Col_17=a] yes=4,no=3
		3:[Col_8=a] yes=8,no=7
			7:[Col_17=c] yes=16,no=15
				15:leaf=0.0336036
				16:leaf=-0.00784347
			8:[Col_15=i] yes=18,no=17
				17:leaf=-0.0171577
				18:leaf=0.0780063
		4:[Col_15=i] yes=10,no=9
			9:[Col_14<20] yes=19,no=20,missing=19
				19:leaf=0.0200359
				20:leaf=-0.0294285
			10:[Col_8=c] yes=22,no=21
				21:leaf=-0.00531329
				22:leaf=0.0883238
	2:[Col_14<47] yes=5,no=6,missing=5
		5:[Col_11=c] yes=12,no=11
			11:[Col_8=d] yes=24,no=23
				23:leaf=-0.0447248
				24:leaf=-0.203825
			12:[Col_16<8] yes=25,no=26,missing=25
				25:leaf=0.0472132
				26:leaf=-0.0154066
		6:[Col_11=a] yes=14,no=13
			13:[Col_23<1] yes=27,no=28,missing=27
				27:leaf=0.10891
				28:leaf=0.00061676
			14:[Col_27=j] yes=30,no=29
				29:leaf=-0.03182
				30:leaf=0.0177311
booster[82]:
0:[Col_26<14] yes=1,no=2,missing=1
	1:[Col_1<14] yes=3,no=4,missing=3
		3:[Col_4=b] yes=8,no=7
			7:[Col_29=c] yes=16,no=15
				15:leaf=-0.00108782
				16:leaf=0.0610014
			8:[Col_29=c] yes=18,no=17
				17:leaf=-0.0232102
				18:leaf=-0.228173
		4:[Col_11=d] yes=10,no=9
			9:[Col_24=a] yes=20,no=19
				19:leaf=-0.0032913
				20:leaf=0.0968928
			10:[Col_8=a] yes=22,no=21
				21:leaf=0.0373541
				22:leaf=-0.0235155
	2:[Col_1<22] yes=5,no=6,missing=5
		5:[Col_15=d] yes=12,no=11
			11:[Col_1<1] yes=23,no=24,missing=23
				23:leaf=-0.105578
				24:leaf=-0.0186228
			12:[Col_26<15] yes=25,no=26,missing=25
				25:leaf=0.2211
				26:leaf=0.0341624
		6:[Col_8=a] yes=14,no=13
			13:[Col_5<1] yes=27,no=28,missing=27
				27:leaf=0.0496836
				28:leaf=-0.236634
			14:[Col_6<3] yes=29,no=30,missing=29
				29:leaf=0.156834
				30:leaf=0.587252
booster[83]:
0:[Col_26<3] yes=1,no=2,missing=1
	1:[Col_1<17] yes=3,no=4,missing=3
		3:[Col_19<1] yes=7,no=8,missing=7
			7:[Col_8=d] yes=16,no=15
				15:leaf=-0.0276954
				16:leaf=0.0712992
			8:[Col_10<7] yes=17,no=18,missing=17
				17:leaf=0.180418
				18:leaf=-0.0136509
		4:[Col_16<7] yes=9,no=10,missing=9
			9:[Col_6<2] yes=19,no=20,missing=19
				19:leaf=0.195016
				20:leaf=0.052393
			10:[Col_16<24] yes=21,no=22,missing=21
				21:leaf=-0.0725118
				22:leaf=0.13208
	2:[Col_26<14] yes=5,no=6,missing=5
		5:[Col_12=b] yes=12,no=11
			11:[Col_10<22] yes=23,no=24,missing=23
				23:leaf=0.00542239
				24:leaf=0.0442778
			12:[Col_10<1] yes=25,no=26,missing=25
				25:leaf=-0.149811
				26:leaf=-0.0114967
		6:[Col_9=c] yes=14,no=13
			13:[Col_16<6] yes=27,no=28,missing=27
				27:leaf=0.0534152
				28:leaf=-0.015475
			14:[Col_17=i] yes=30,no=29
				29:leaf=-0.126452
				30:leaf=0.506763
booster[84]:
0:[Col_19<11] yes=1,no=2,missing=1
	1:[Col_19<10] yes=3,no=4,missing=3
		3:[Col_26<15] yes=7,no=8,missing=7
			7:[Col_27=g] yes=16,no=15
				15:leaf=0.00161233
				16:leaf=0.0410624
			8:[Col_9=c] yes=18,no=17
				17:leaf=-0.0181251
				18:leaf=0.302003
		4:[Col_1<22] yes=9,no=10,missing=9
			9:[Col_29=c] yes=20,no=19
				19:leaf=0.017493
				20:leaf=0.203696
			10:[Col_16<19] yes=21,no=22,missing=21
				21:leaf=0.133337
				22:leaf=0.368295
	2:[Col_27=f] yes=6,no=5
		5:[Col_28=a] yes=12,no=11
			11:[Col_1<17] yes=23,no=24,missing=23
				23:leaf=-0.0199258
				24:leaf=0.23137
			12:[Col_17=a] yes=26,no=25
				25:leaf=-0.0522137
				26:leaf=0.0737322
		6:[Col_11=e] yes=14,no=13
			13:[Col_22=a] yes=28,no=27
				27:leaf=-0.0289803
				28:leaf=-0.139348
			14:[Col_26<19] yes=29,no=30,missing=29
				29:leaf=-0.0778244
				30:leaf=0.12415
booster[85]:
0:[Col_10<6] yes=1,no=2,missing=1
	1:[Col_14<95] yes=3,no=4,missing=3
		3:[Col_3=d] yes=8,no=7
			7:[Col_16<20] yes=15,no=16,missing=15
				15:leaf=0.0125635
				16:leaf=-0.0375622
			8:[Col_16<16] yes=17,no=18,missing=17
				17:leaf=0.0274131
				18:leaf=0.348795
		4:[Col_16<11] yes=9,no=10,missing=9
			9:[Col_20=b] yes=20,no=19
				19:leaf=0.0366649
				20:leaf=-0.0838427
			10:[Col_30<8] yes=21,no=22,missing=21
				21:leaf=-0.0266612
				22:leaf=-0.130902
	2:[Col_7<15] yes=5,no=6,missing=5
		5:[Col_7<11] yes=11,no=12,missing=11
			11:[Col_16<2] yes=23,no=24,missing=23
				23:leaf=0.281952
				24:leaf=-0.00277236
			12:[Col_16<26] yes=25,no=26,missing=25
				25:leaf=-0.0271509
				26:leaf=0.0827803
		6:[Col_30<8] yes=13,no=14,missing=13
			13:[Col_27=k] yes=28,no=27
				27:leaf=-0.014911
				28:leaf=0.299034
			14:[Col_30<13] yes=29,no=30,missing=29
				29:leaf=0.0512504
				30:leaf=-0.0037356
booster[86]:
0:[Col_12=e] yes=2,no=1
	1:[Col_12=h] yes=4,no=3
		3:[Col_15=p] yes=8,no=7
			7:[Col_28=e] yes=16,no=15
				15:leaf=-0.00344484
				16:leaf=-0.0526834
			8:[Col_29=b] yes=18,no=17
				17:leaf=0.395099
				18:leaf=0.0228382
		4:[Col_15=n] yes=10,no=9
			9:[Col_14<11] yes=19,no=20,missing=19
				19:leaf=0.172952
				20:leaf=0.0106678
			10:[Col_7<15] yes=21,no=22,missing=21
				21:leaf=0.0331768
				22:leaf=0.531022
	2:[Col_4=a] yes=6,no=5
		5:[Col_7<7] yes=11,no=12,missing=11
			11:[Col_1<13] yes=23,no=24,missing=23
				23:leaf=-0.0981325
				24:leaf=0.142528
			12:[Col_7<14] yes=25,no=26,missing=25
				25:leaf=-0.236214
				26:leaf=-0.0675165
		6:[Col_16<10] yes=13,no=14,missing=13
			13:[Col_26<14] yes=27,no=28,missing=27
				27:leaf=-0.0216598
				28:leaf=0.133958
			14:[Col_17=c] yes=30,no=29
				29:leaf=0.207231
				30:leaf=-0.00157482
booster[87]:
0:[Col_12=e] yes=2,no=1
	1:[Col_29=c] yes=4,no=3
		3:[Col_14<69] yes=7,no=8,missing=7
			7:[Col_12=d] yes=16,no=15
				15:leaf=-4.55954e-05
				16:leaf=0.106377
			8:[Col_3=a] yes=18,no=17
				17:leaf=0.0135859
				18:leaf=-0.0202981
		4:[Col_8=c] yes=10,no=9
			9:[Col_31<8] yes=19,no=20,missing=19
				19:leaf=0.109814
				20:leaf=-0.0168167
			10:[Col_31<17] yes=21,no=22,missing=21
				21:leaf=-0.0154923
				22:leaf=0.37204
	2:[Col_16<10] yes=5,no=6,missing=5
		5:[Col_15=r] yes=12,no=11
			11:[Col_14<28] yes=23,no=24,missing=23
				23:leaf=0.164713
				24:leaf=0.00736595
			12:[Col_31<11] yes=25,no=26,missing=25
				25:leaf=-0.238
				26:leaf=-0.0198987
		6:[Col_14<73] yes=13,no=14,missing=13
			13:[Col_14<66] yes=27,no=28,missing=27
				27:leaf=0.134221
				28:leaf=0.486736
			14:[Col_16<16] yes=29,no=30,missing=29
				29:leaf=0.0823039
				30:leaf=-0.188487
booster[88]:
0:[Col_23<2] yes=1,no=2,missing=1
	1:[Col_27=a] yes=4,no=3
		3:[Col_10<6] yes=7,no=8,missing=7
			7:[Col_29=c] yes=16,no=15
				15:leaf=0.0126996
				16:leaf=0.103719
			8:[Col_10<22] yes=17,no=18,missing=17
				17:leaf=-0.00174818
				18:leaf=0.0293395
		4:[Col_9=b] yes=10,no=9
			9:[Col_19<2] yes=19,no=20,missing=19
				19:leaf=-0.161398
				20:leaf=-0.0319053
			10:[Col_20=a] yes=22,no=21
				21:leaf=-0.011133
				22:leaf=-0.0526057
	2:[Col_17=d] yes=6,no=5
		5:[Col_7<3] yes=11,no=12,missing=11
			11:[Col_29=c] yes=24,no=23
				23:leaf=-0.0248562
				24:leaf=-0.186817
			12:[Col_7<4] yes=25,no=26,missing=25
				25:leaf=0.0293666
				26:leaf=-0.00887568
		6:[Col_10<13] yes=13,no=14,missing=13
			13:leaf=0.252748
			14:leaf=0.0449335
booster[89]:
0:[Col_27=d] yes=2,no=1
	1:[Col_7<17] yes=3,no=4,missing=3
		3:[Col_7<11] yes=7,no=8,missing=7
			7:[Col_16<2] yes=13,no=14,missing=13
				13:leaf=0.203214
				14:leaf=0.00155957
			8:[Col_10<20] yes=15,no=16,missing=15
				15:leaf=-0.0143685
				16:leaf=0.0305297
		4:[Col_27=j] yes=10,no=9
			9:[Col_16<10] yes=17,no=18,missing=17
				17:leaf=-0.0253224
				18:leaf=0.0348997
			10:[Col_2<4] yes=19,no=20,missing=19
				19:leaf=0.0142124
				20:leaf=0.219222
	2:[Col_10<22] yes=5,no=6,missing=5
		5:[Col_31<2] yes=11,no=12,missing=11
			11:[Col_16<14] yes=21,no=22,missing=21
				21:leaf=0.344225
				22:leaf=0.0498217
			12:[Col_17=b] yes=24,no=23
				23:leaf=-0.0166287
				24:leaf=0.179017
		6:leaf=0.316271
booster[90]:
0:[Col_26<14] yes=1,no=2,missing=1
	1:[Col_24=c] yes=4,no=3
		3:[Col_19<7] yes=7,no=8,missing=7
			7:[Col_27=i] yes=14,no=13
				13:leaf=-0.00176343
				14:leaf=0.10344
			8:[Col_29=c] yes=16,no=15
				15:leaf=0.0163047
				16:leaf=0.173899
		4:[Col_19<5] yes=9,no=10,missing=9
			9:[Col_16<6] yes=17,no=18,missing=17
				17:leaf=0.296265
				18:leaf=0.0149075
			10:[Col_12=f] yes=20,no=19
				19:leaf=0.339353
				20:leaf=0.028058
	2:[Col_17=d] yes=6,no=5
		5:[Col_11=e] yes=12,no=11
			11:[Col_17=a] yes=22,no=21
				21:leaf=-0.021609
				22:leaf=0.0080277
			12:[Col_16<13] yes=23,no=24,missing=23
				23:leaf=0.00299311
				24:leaf=0.110369
		6:leaf=0.337244
booster[91]:
0:[Col_15=a] yes=2,no=1
	1:[Col_12=a] yes=4,no=3
		3:[Col_15=b] yes=8,no=7
			7:[Col_12=b] yes=16,no=15
				15:leaf=0.00964168
				16:leaf=-0.0124996
			8:[Col_14<13] yes=17,no=18,missing=17
				17:leaf=0.100329
				18:leaf=-0.00940446
		4:[Col_28=e] yes=10,no=9
			9:[Col_17=b] yes=20,no=19
				19:leaf=-0.00895616
				20:leaf=0.0427936
			10:[Col_23<2] yes=21,no=22,missing=21
				21:leaf=-0.0652376
				22:leaf=-0.140585
	2:[Col_10<2] yes=5,no=6,missing=5
		5:[Col_14<88] yes=11,no=12,missing=11
			11:[Col_12=h] yes=24,no=23
				23:leaf=-0.0280599
				24:leaf=0.252779
			12:leaf=0.299581
		6:[Col_12=c] yes=14,no=13
			13:[Col_10<6] yes=25,no=26,missing=25
				25:leaf=-0.0690815
				26:leaf=-0.0243133
			14:[Col_10<18] yes=27,no=28,missing=27
				27:leaf=-0.0714042
				28:leaf=-0.20864
booster[92]:
0:[Col_6<3] yes=1,no=2,missing=1
	1:[Col_11=e] yes=4,no=3
		3:[Col_8=a] yes=8,no=7
			7:[Col_23<1] yes=15,no=16,missing=15
				15:leaf=0.188309
				16:leaf=-0.00418912
			8:[Col_15=i] yes=18,no=17
				17:leaf=-0.0271825
				18:leaf=0.0218218
		4:[Col_23<2] yes=9,no=10,missing=9
			9:[Col_6<1] yes=19,no=20,missing=19
				19:leaf=0.114159
				20:leaf=0.0228792
			10:[Col_30<13] yes=21,no=22,missing=21
				21:leaf=-0.0470286
				22:leaf=0.065007
	2:[Col_19<4] yes=5,no=6,missing=5
		5:[Col_30<13] yes=11,no=12,missing=11
			11:[Col_15=e] yes=24,no=23
				23:leaf=-0.010718
				24:leaf=0.042279
			12:[Col_27=k] yes=26,no=25
				25:leaf=0.0128014
				26:leaf=0.215773
		6:[Col_23<3] yes=13,no=14,missing=13
			13:[Col_9=b] yes=28,no=27
				27:leaf=-0.0375581
				28:leaf=0.0358475
			14:[Col_12=a] yes=30,no=29
				29:leaf=-0.0431513
				30:leaf=0.02259
booster[93]:
0:[Col_14<20] yes=1,no=2,missing=1
	1:[Col_19<1] yes=3,no=4,missing=3
		3:[Col_14<19] yes=7,no=8,missing=7
			7:[Col_29=b] yes=16,no=15
				15:leaf=-0.128538
				16:leaf=0.00102067
			8:[Col_16<10] yes=17,no=18,missing=17
				17:leaf=0.256489
				18:leaf=-0.00517209
		4:[Col_16<25] yes=9,no=10,missing=9
			9:[Col_16<21] yes=19,no=20,missing=19
				19:leaf=0.0527492
				20:leaf=-0.260438
			10:leaf=0.357496
	2:[Col_15=c] yes=6,no=5
		5:[Col_16<17] yes=11,no=12,missing=11
			11:[Col_16<10] yes=21,no=22,missing=21
				21:leaf=-0.00421505
				22:leaf=0.00803283
			12:[Col_27=g] yes=24,no=23
				23:leaf=-0.00796134
				24:leaf=-0.103956
		6:[Col_19<1] yes=13,no=14,missing=13
			13:[Col_3=b] yes=26,no=25
				25:leaf=-0.0259119
				26:leaf=0.028211
			14:[Col_19<5] yes=27,no=28,missing=27
				27:leaf=-0.0763942
				28:leaf=-0.0118397
booster[94]:
0:[Col_26<14] yes=1,no=2,missing=1
	1:[Col_6<2] yes=3,no=4,missing=3
		3:[Col_1<10] yes=7,no=8,missing=7
			7:[Col_16<10] yes=15,no=16,missing=15
				15:leaf=-0.00761806
				16:leaf=0.0282319
			8:[Col_10<22] yes=17,no=18,missing=17
				17:leaf=-0.0152331
				18:leaf=0.0535325
		4:[Col_1<5] yes=9,no=10,missing=9
			9:[Col_16<26] yes=19,no=20,missing=19
				19:leaf=-0.023446
				20:leaf=0.233564
			10:[Col_16<16] yes=21,no=22,missing=21
				21:leaf=0.0197217
				22:leaf=-0.00786043
	2:[Col_29=c] yes=6,no=5
		5:[Col_30<3] yes=11,no=12,missing=11
			11:[Col_14<36] yes=23,no=24,missing=23
				23:leaf=-0.121336
				24:leaf=-0.0374071
			12:[Col_10<21] yes=25,no=26,missing=25
				25:leaf=0.00309614
				26:leaf=-0.0394647
		6:[Col_17=i] yes=14,no=13
			13:[Col_1<18] yes=27,no=28,missing=27
				27:leaf=-0.0503055
				28:leaf=0.263017
			14:[Col_10<13] yes=29,no=30,missing=29
				29:leaf=-0.35476
				30:leaf=-0.0780624
booster[95]:
0:[Col_27=k] yes=2,no=1
	1:[Col_14<98] yes=3,no=4,missing=3
		3:[Col_19<6] yes=7,no=8,missing=7
			7:[Col_15=o] yes=16,no=15
				15:leaf=-0.00222802
				16:leaf=0.135719
			8:[Col_16<16] yes=17,no=18,missing=17
				17:leaf=0.0226379
				18:leaf=-0.027265
		4:[Col_16<8] yes=9,no=10,missing=9
			9:[Col_23<2] yes=19,no=20,missing=19
				19:leaf=0.0824613
				20:leaf=-0.0604949
			10:[Col_10<10] yes=21,no=22,missing=21
				21:leaf=-0.108103
				22:leaf=-0.0201084
	2:[Col_14<30] yes=5,no=6,missing=5
		5:[Col_20=a] yes=12,no=11
			11:[Col_10<12] yes=23,no=24,missing=23
				23:leaf=0.297287
				24:leaf=0.540634
			12:leaf=-0.0667073
		6:[Col_14<97] yes=13,no=14,missing=13
			13:[Col_29=b] yes=26,no=25
				25:leaf=-0.169242
				26:leaf=0.0224083
			14:leaf=0.251092
booster[96]:
0:[Col_8=d] yes=2,no=1
	1:[Col_23<1] yes=3,no=4,missing=3
		3:[Col_31<5] yes=7,no=8,missing=7
			7:leaf=-0.165848
			8:[Col_7<4] yes=15,no=16,missing=15
				15:leaf=-0.0896907
				16:leaf=0.261105
		4:[Col_7<10] yes=9,no=10,missing=9
			9:[Col_7<3] yes=17,no=18,missing=17
				17:leaf=-0.0120019
				18:leaf=0.00560675
			10:[Col_24=c] yes=20,no=19
				19:leaf=-0.0105866
				20:leaf=0.0314778
	2:[Col_32=b] yes=6,no=5
		5:[Col_10<17] yes=11,no=12,missing=11
			11:[Col_27=j] yes=22,no=21
				21:leaf=0.18845
				22:leaf=-0.0748226
			12:[Col_21<3] yes=23,no=24,missing=23
				23:leaf=0.0554944
				24:leaf=-0.0631521
		6:[Col_19<1] yes=13,no=14,missing=13
			13:[Col_26<6] yes=25,no=26,missing=25
				25:leaf=-0.0133679
				26:leaf=0.0603556
			14:[Col_26<3] yes=27,no=28,missing=27
				27:leaf=0.149061
				28:leaf=-0.0106046
booster[97]:
0:[Col_14<18] yes=1,no=2,missing=1
	1:[Col_8=c] yes=4,no=3
		3:[Col_12=f] yes=8,no=7
			7:[Col_9=b] yes=16,no=15
				15:leaf=0.10055
				16:leaf=-0.0538456
			8:[Col_17=f] yes=18,no=17
				17:leaf=0.0659985
				18:leaf=-0.027466
		4:[Col_27=f] yes=10,no=9
			9:[Col_21<5] yes=19,no=20,missing=19
				19:leaf=-0.0364227
				20:leaf=0.141665
			10:[Col_18<1] yes=21,no=22,missing=21
				21:leaf=0.669464
				22:leaf=0.163165
	2:[Col_15=f] yes=6,no=5
		5:[Col_23<1] yes=11,no=12,missing=11
			11:[Col_14<55] yes=23,no=24,missing=23
				23:leaf=-0.0862296
				24:leaf=0.213508
			12:[Col_8=a] yes=26,no=25
				25:leaf=0.000121467
				26:leaf=-0.0105831
		6:[Col_32=b] yes=14,no=13
			13:[Col_10<6] yes=27,no=28,missing=27
				27:leaf=0.366868
				28:leaf=0.113164
			14:[Col_2<6] yes=29,no=30,missing=29
				29:leaf=-0.0952315
				30:leaf=0.0904684
booster[98]:
0:[Col_5<2] yes=1,no=2,missing=1
	1:[Col_1<18] yes=3,no=4,missing=3
		3:[Col_12=h] yes=8,no=7
			7:[Col_27=j] yes=16,no=15
				15:leaf=-0.00667032
				16:leaf=0.0130311
			8:[Col_29=c] yes=18,no=17
				17:leaf=0.0153104
				18:leaf=0.170799
		4:[Col_7<7] yes=9,no=10,missing=9
			9:[Col_11=e] yes=20,no=19
				19:leaf=0.0345862
				20:leaf=0.165005
			10:[Col_7<14] yes=21,no=22,missing=21
				21:leaf=-0.0144524
				22:leaf=0.0417875
	2:[Col_27=j] yes=6,no=5
		5:[Col_1<18] yes=11,no=12,missing=11
			11:[Col_7<10] yes=23,no=24,missing=23
				23:leaf=0.509934
				24:leaf=0.135586
			12:leaf=-0.121629
		6:[Col_10<10] yes=13,no=14,missing=13
			13:leaf=0.061295
			14:leaf=-0.104239
booster[99]:
0:[Col_6<8] yes=1,no=2,missing=1
	1:[Col_27=i] yes=4,no=3
		3:[Col_14<10] yes=7,no=8,missing=7
			7:[Col_6<5] yes=15,no=16,missing=15
				15:leaf=0.025001
				16:leaf=0.293292
			8:[Col_7<10] yes=17,no=18,missing=17
				17:leaf=0.00324838
				18:leaf=-0.00768019
		4:[Col_14<42] yes=9,no=10,missing=9
			9:[Col_7<7] yes=19,no=20,missing=19
				19:leaf=0.0401076
				20:leaf=-0.22943
			10:[Col_19<2] yes=21,no=22,missing=21
				21:leaf=0.289419
				22:leaf=0.0234294
	2:[Col_19<1] yes=5,no=6,missing=5
		5:[Col_14<62] yes=11,no=12,missing=11
			11:leaf=0.401345
			12:leaf=0.0608373
		6:[Col_13<1] yes=13,no=14,missing=13
			13:leaf=0.243709
			14:[Col_7<6] yes=23,no=24,missing=23
				23:leaf=-0.185155
				24:leaf=0.0244769
booster[100]:
0:[Col_18<2] yes=1,no=2,missing=1
	1:[Col_26<18] yes=3,no=4,missing=3
		3:[Col_14<6] yes=7,no=8,missing=7
			7:[Col_6<2] yes=15,no=16,missing=15
				15:leaf=-0.0177008
				16:leaf=-0.190787
			8:[Col_14<7] yes=17,no=18,missing=17
				17:leaf=0.186097
				18:leaf=0.000244937
		4:[Col_4=b] yes=10,no=9
			9:[Col_5<1] yes=19,no=20,missing=19
				19:leaf=-0.0492724
				20:leaf=0.270593
			10:[Col_26<21] yes=21,no=22,missing=21
				21:leaf=0.0132963
				22:leaf=0.136871
	2:[Col_28=b] yes=6,no=5
		5:[Col_5<1] yes=11,no=12,missing=11
			11:[Col_24=c] yes=24,no=23
				23:leaf=0.00839488
				24:leaf=0.0840309
			12:[Col_24=c] yes=26,no=25
				25:leaf=-0.0273574
				26:leaf=-0.361621
		6:[Col_26<6] yes=13,no=14,missing=13
			13:[Col_17=i] yes=28,no=27
				27:leaf=-0.0637797
				28:leaf=0.149137
			14:[Col_26<13] yes=29,no=30,missing=29
				29:leaf=0.194923
				30:leaf=-0.0504167
booster[101]:
0:[Col_12=e] yes=2,no=1
	1:[Col_13<5] yes=3,no=4,missing=3
		3:[Col_18<6] yes=7,no=8,missing=7
			7:[Col_24=d] yes=14,no=13
				13:leaf=-0.00100371
				14:leaf=-0.027604
			8:[Col_7<2] yes=15,no=16,missing=15
				15:leaf=-0.1474
				16:leaf=0.116293
		4:[Col_16<9] yes=9,no=10,missing=9
			9:[Col_2<6] yes=17,no=18,missing=17
				17:leaf=0.222471
				18:leaf=-0.0427272
			10:[Col_6<2] yes=19,no=20,missing=19
				19:leaf=-0.208909
				20:leaf=-0.0460864
	2:[Col_28=b] yes=6,no=5
		5:[Col_6<2] yes=11,no=12,missing=11
			11:[Col_7<5] yes=21,no=22,missing=21
				21:leaf=0.0776153
				22:leaf=-0.0546115
			12:[Col_8=e] yes=24,no=23
				23:leaf=0.163432
				24:leaf=0.0199012
		6:leaf=0.27933
booster[102]:
0:[Col_14<45] yes=1,no=2,missing=1
	1:[Col_19<1] yes=3,no=4,missing=3
		3:[Col_27=j] yes=8,no=7
			7:[Col_6<1] yes=15,no=16,missing=15
				15:leaf=-0.0367904
				16:leaf=-0.00369497
			8:[Col_24=b] yes=18,no=17
				17:leaf=0.177556
				18:leaf=0.00978588
		4:[Col_10<15] yes=9,no=10,missing=9
			9:[Col_14<15] yes=19,no=20,missing=19
				19:leaf=0.119748
				20:leaf=0.0331242
			10:[Col_15=n] yes=22,no=21
				21:leaf=0.00978187
				22:leaf=-0.0956815
	2:[Col_31<8] yes=5,no=6,missing=5
		5:[Col_6<3] yes=11,no=12,missing=11
			11:[Col_19<11] yes=23,no=24,missing=23
				23:leaf=-0.0231068
				24:leaf=-0.140864
			12:[Col_29=c] yes=26,no=25
				25:leaf=-0.00529019
				26:leaf=0.146145
		6:[Col_15=m] yes=14,no=13
			13:[Col_29=c] yes=28,no=27
				27:leaf=0.00330498
				28:leaf=-0.0348135
			14:[Col_10<1] yes=29,no=30,missing=29
				29:leaf=0.0692757
				30:leaf=-0.0684446
booster[103]:
0:[Col_3=d] yes=2,no=1
	1:[Col_13<2] yes=3,no=4,missing=3
		3:[Col_24=d] yes=8,no=7
			7:[Col_15=f] yes=16,no=15
				15:leaf=-0.00207225
				16:leaf=0.0765114
			8:[Col_29=c] yes=18,no=17
				17:leaf=-0.0209702
				18:leaf=-0.16078
		4:[Col_25=a] yes=10,no=9
			9:[Col_14<38] yes=19,no=20,missing=19
				19:leaf=0.0822941
				20:leaf=-0.0396735
			10:[Col_27=f] yes=22,no=21
				21:leaf=0.00565037
				22:leaf=0.0507156
	2:[Col_12=b] yes=6,no=5
		5:[Col_8=d] yes=12,no=11
			11:[Col_26<9] yes=23,no=24,missing=23
				23:leaf=0.222725
				24:leaf=-0.00301806
			12:leaf=0.368106
		6:[Col_15=k] yes=14,no=13
			13:[Col_19<5] yes=25,no=26,missing=25
				25:leaf=0.00838869
				26:leaf=-0.0976054
			14:leaf=-0.141478
booster[104]:
0:[Col_27=a] yes=2,no=1
	1:[Col_1<1] yes=3,no=4,missing=3
		3:[Col_29=c] yes=8,no=7
			7:[Col_16<9] yes=15,no=16,missing=15
				15:leaf=-0.0551975
				16:leaf=0.00580244
			8:leaf=-0.300507
		4:[Col_18<5] yes=9,no=10,missing=9
			9:[Col_3=c] yes=18,no=17
				17:leaf=-0.00103581
				18:leaf=0.015259
			10:[Col_17=f] yes=20,no=19
				19:leaf=0.0102224
				20:leaf=0.0959122
	2:[Col_1<17] yes=5,no=6,missing=5
		5:[Col_6<6] yes=11,no=12,missing=11
			11:[Col_16<8] yes=21,no=22,missing=21
				21:leaf=-0.0736309
				22:leaf=-0.00588748
			12:leaf=0.129883
		6:[Col_10<4] yes=13,no=14,missing=13
			13:[Col_3=a] yes=24,no=23
				23:leaf=-0.221957
				24:leaf=-0.0163758
			14:[Col_28=a] yes=26,no=25
				25:leaf=0.0607325
				26:leaf=-0.0617832
booster[105]:
0:[Col_3=c] yes=2,no=1
	1:[Col_10<5] yes=3,no=4,missing=3
		3:[Col_15=k] yes=8,no=7
			7:[Col_15=o] yes=16,no=15
				15:leaf=0.000560767
				16:leaf=0.223747
			8:[Col_1<18] yes=17,no=18,missing=17
				17:leaf=0.0168899
				18:leaf=0.110745
		4:[Col_3=e] yes=10,no=9
			9:[Col_18<1] yes=19,no=20,missing=19
				19:leaf=-0.0167782
				20:leaf=-0.0025335
			10:[Col_14<56] yes=21,no=22,missing=21
				21:leaf=-0.0326141
				22:leaf=0.4025
	2:[Col_21<5] yes=5,no=6,missing=5
		5:[Col_27=k] yes=12,no=11
			11:[Col_18<1] yes=23,no=24,missing=23
				23:leaf=0.0742637
				24:leaf=0.0188568
			12:leaf=0.311521
		6:[Col_14<52] yes=13,no=14,missing=13
			13:[Col_15=k] yes=26,no=25
				25:leaf=-0.039745
				26:leaf=-0.199131
			14:[Col_1<18] yes=27,no=28,missing=27
				27:leaf=-0.00487509
				28:leaf=0.083753
booster[106]:
0:[Col_7<10] yes=1,no=2,missing=1
	1:[Col_5<2] yes=3,no=4,missing=3
		3:[Col_1<20] yes=7,no=8,missing=7
			7:[Col_17=d] yes=16,no=15
				15:leaf=0.00167985
				16:leaf=0.134996
			8:[Col_16<20] yes=17,no=18,missing=17
				17:leaf=0.0556205
				18:leaf=-0.038475
		4:[Col_1<18] yes=9,no=10,missing=9
			9:[Col_1<10] yes=19,no=20,missing=19
				19:leaf=0.444977
				20:leaf=0.233485
			10:leaf=-0.0827873
	2:[Col_7<14] yes=5,no=6,missing=5
		5:[Col_14<18] yes=11,no=12,missing=11
			11:[Col_3=a] yes=22,no=21
				21:leaf=-0.0276513
				22:leaf=0.136095
			12:[Col_16<12] yes=23,no=24,missing=23
				23:leaf=-0.0376717
				24:leaf=-0.010507
		6:[Col_14<26] yes=13,no=14,missing=13
			13:[Col_14<15] yes=25,no=26,missing=25
				25:leaf=0.0132483
				26:leaf=-0.054391
			14:[Col_16<10] yes=27,no=28,missing=27
				27:leaf=-0.0019257
				28:leaf=0.0279385
booster[107]:
0:[Col_16<7] yes=1,no=2,missing=1
	1:[Col_1<15] yes=3,no=4,missing=3
		3:[Col_29=c] yes=8,no=7
			7:[Col_7<16] yes=15,no=16,missing=15
				15:leaf=0.00750753
				16:leaf=-0.0469749
			8:leaf=0.29
		4:[Col_3=c] yes=10,no=9
			9:[Col_13<2] yes=17,no=18,missing=17
				17:leaf=0.0367304
				18:leaf=0.14969
			10:[Col_12=f] yes=20,no=19
				19:leaf=0.0449632
				20:leaf=0.344977
	2:[Col_7<17] yes=5,no=6,missing=5
		5:[Col_7<10] yes=11,no=12,missing=11
			11:[Col_27=d] yes=22,no=21
				21:leaf=0.00191963
				22:leaf=0.0746271
			12:[Col_29=c] yes=24,no=23
				23:leaf=-0.00539478
				24:leaf=-0.0676532
		6:[Col_15=e] yes=14,no=13
			13:[Col_16<28] yes=25,no=26,missing=25
				25:leaf=0.0255473
				26:leaf=-0.203253
			14:[Col_20=a] yes=28,no=27
				27:leaf=-0.111847
				28:leaf=0.0104424
booster[108]:
0:[Col_7<11] yes=1,no=2,missing=1
	1:[Col_7<3] yes=3,no=4,missing=3
		3:[Col_15=i] yes=8,no=7
			7:[Col_19<5] yes=15,no=16,missing=15
				15:leaf=-0.0106149
				16:leaf=-0.0502782
			8:[Col_20=a] yes=18,no=17
				17:leaf=-0.0100852
				18:leaf=0.0977758
		4:[Col_19<5] yes=9,no=10,missing=9
			9:[Col_15=m] yes=20,no=19
				19:leaf=0.001918
				20:leaf=0.0480531
			10:[Col_18<6] yes=21,no=22,missing=21
				21:leaf=0.0221231
				22:leaf=0.278895
	2:[Col_11=e] yes=6,no=5
		5:[Col_29=d] yes=12,no=11
			11:[Col_14<8] yes=23,no=24,missing=23
				23:leaf=0.0646859
				24:leaf=-0.0137296
			12:[Col_1<19] yes=25,no=26,missing=25
				25:leaf=0.0665956
				26:leaf=-0.0950554
		6:[Col_13<1] yes=13,no=14,missing=13
			13:[Col_7<17] yes=27,no=28,missing=27
				27:leaf=0.12082
				28:leaf=0.287888
			14:[Col_24=c] yes=30,no=29
				29:leaf=-0.00342713
				30:leaf=-0.211782
booster[109]:
0:[Col_1<19] yes=1,no=2,missing=1
	1:[Col_14<4] yes=3,no=4,missing=3
		3:[Col_15=k] yes=8,no=7
			7:[Col_16<16] yes=15,no=16,missing=15
				15:leaf=-0.155884
				16:leaf=0.0443749
			8:leaf=0.0645598
		4:[Col_14<10] yes=9,no=10,missing=9
			9:[Col_13<2] yes=17,no=18,missing=17
				17:leaf=0.0164008
				18:leaf=0.222155
			10:[Col_16<27] yes=19,no=20,missing=19
				19:leaf=-0.00344297
				20:leaf=-0.0825791
	2:[Col_22=a] yes=6,no=5
		5:[Col_14<54] yes=11,no=12,missing=11
			11:[Col_19<3] yes=21,no=22,missing=21
				21:leaf=0.0288293
				22:leaf=0.179772
			12:[Col_2<6] yes=23,no=24,missing=23
				23:leaf=0.0594322
				24:leaf=-0.0320688
		6:[Col_29=b] yes=14,no=13
			13:[Col_16<14] yes=25,no=26,missing=25
				25:leaf=-0.167445
				26:leaf=-0.0192434
			14:[Col_16<6] yes=27,no=28,missing=27
				27:leaf=0.32254
				28:leaf=0.0017697
booster[110]:
0:[Col_15=o] yes=2,no=1
	1:[Col_9=c] yes=4,no=3
		3:[Col_11=e] yes=8,no=7
			7:[Col_1<1] yes=15,no=16,missing=15
				15:leaf=-0.0277955
				16:leaf=1.91038e-05
			8:[Col_23<2] yes=17,no=18,missing=17
				17:leaf=0.0423694
				18:leaf=-0.0317327
		4:[Col_31<8] yes=9,no=10,missing=9
			9:[Col_14<42] yes=19,no=20,missing=19
				19:leaf=0.004498
				20:leaf=-0.238497
			10:[Col_1<12] yes=21,no=22,missing=21
				21:leaf=-0.0114987
				22:leaf=0.15897
	2:[Col_14<61] yes=5,no=6,missing=5
		5:[Col_30<8] yes=11,no=12,missing=11
			11:leaf=0.320007
			12:[Col_19<1] yes=23,no=24,missing=23
				23:leaf=-0.0459144
				24:leaf=0.212524
		6:[Col_16<10] yes=13,no=14,missing=13
			13:leaf=0.0321371
			14:leaf=-0.258738
booster[111]:
0:[Col_16<4] yes=1,no=2,missing=1
	1:[Col_23<2] yes=3,no=4,missing=3
		3:[Col_15=k] yes=8,no=7
			7:[Col_3=c] yes=16,no=15
				15:leaf=0.00355402
				16:leaf=0.379127
			8:leaf=0.387485
		4:[Col_31<7] yes=9,no=10,missing=9
			9:leaf=0.18467
			10:[Col_21<5] yes=17,no=18,missing=17
				17:leaf=-0.149806
				18:leaf=0.0125959
	2:[Col_24=c] yes=6,no=5
		5:[Col_8=b] yes=12,no=11
			11:[Col_20=a] yes=20,no=19
				19:leaf=-0.00478999
				20:leaf=0.00280342
			12:[Col_23<2] yes=21,no=22,missing=21
				21:leaf=0.0892084
				22:leaf=-0.0848983
		6:[Col_15=e] yes=14,no=13
			13:[Col_25=a] yes=24,no=23
				23:leaf=0.108425
				24:leaf=-0.0129358
			14:[Col_12=f] yes=26,no=25
				25:leaf=0.0117009
				26:leaf=0.4554
booster[112]:
0:[Col_21<6] yes=1,no=2,missing=1
	1:[Col_12=e] yes=4,no=3
		3:[Col_7<3] yes=7,no=8,missing=7
			7:[Col_11=c] yes=16,no=15
				15:leaf=-0.0276074
				16:leaf=0.00784234
			8:[Col_7<5] yes=17,no=18,missing=17
				17:leaf=0.0211498
				18:leaf=0.000852856
		4:[Col_21<2] yes=9,no=10,missing=9
			9:[Col_19<1] yes=19,no=20,missing=19
				19:leaf=-0.0828148
				20:leaf=0.400266
			10:[Col_7<3] yes=21,no=22,missing=21
				21:leaf=0.191451
				22:leaf=-0.00411963
	2:[Col_2<9] yes=5,no=6,missing=5
		5:[Col_7<18] yes=11,no=12,missing=11
			11:[Col_7<17] yes=23,no=24,missing=23
				23:leaf=-0.0182971
				24:leaf=0.0605655
			12:[Col_8=a] yes=26,no=25
				25:leaf=0.00444833
				26:leaf=-0.159226
		6:[Col_29=c] yes=14,no=13
			13:[Col_24=c] yes=28,no=27
				27:leaf=-0.000254369
				28:leaf=0.224081
			14:[Col_12=f] yes=30,no=29
				29:leaf=-0.160315
				30:leaf=0.485271
booster[113]:
0:[Col_14<70] yes=1,no=2,missing=1
	1:[Col_19<2] yes=3,no=4,missing=3
		3:[Col_8=d] yes=8,no=7
			7:[Col_21<6] yes=15,no=16,missing=15
				15:leaf=-0.000767175
				16:leaf=-0.0289922
			8:[Col_7<18] yes=17,no=18,missing=17
				17:leaf=0.0277223
				18:leaf=0.181049
		4:[Col_7<2] yes=9,no=10,missing=9
			9:[Col_13<1] yes=19,no=20,missing=19
				19:leaf=0.0235309
				20:leaf=-0.0392073
			10:[Col_16<12] yes=21,no=22,missing=21
				21:leaf=0.013206
				22:leaf=0.039058
	2:[Col_11=f] yes=6,no=5
		5:[Col_14<76] yes=11,no=12,missing=11
			11:[Col_24=b] yes=24,no=23
				23:leaf=0.0539784
				24:leaf=-0.032683
			12:[Col_7<9] yes=25,no=26,missing=25
				25:leaf=0.0033664
				26:leaf=-0.014564
		6:[Col_16<9] yes=13,no=14,missing=13
			13:leaf=-0.0743799
			14:leaf=0.363073
booster[114]:
0:[Col_9=b] yes=2,no=1
	1:[Col_26<11] yes=3,no=4,missing=3
		3:[Col_29=c] yes=8,no=7
			7:[Col_14<52] yes=15,no=16,missing=15
				15:leaf=-0.037355
				16:leaf=0.0141905
			8:[Col_26<8] yes=17,no=18,missing=17
				17:leaf=-0.143315
				18:leaf=0.580397
		4:[Col_1<3] yes=9,no=10,missing=9
			9:[Col_30<13] yes=19,no=20,missing=19
				19:leaf=0.161225
				20:leaf=-0.0624054
			10:[Col_10<19] yes=21,no=22,missing=21
				21:leaf=-0.0699248
				22:leaf=0.000938496
	2:[Col_27=d] yes=6,no=5
		5:[Col_1<22] yes=11,no=12,missing=11
			11:[Col_15=c] yes=24,no=23
				23:leaf=-0.000347216
				24:leaf=-0.0367895
			12:[Col_3=e] yes=26,no=25
				25:leaf=0.0243488
				26:leaf=0.314329
		6:[Col_10<22] yes=13,no=14,missing=13
			13:[Col_30<8] yes=27,no=28,missing=27
				27:leaf=-0.0424942
				28:leaf=0.0849747
			14:leaf=0.286001
booster[115]:
0:[Col_6<8] yes=1,no=2,missing=1
	1:[Col_26<14] yes=3,no=4,missing=3
		3:[Col_3=d] yes=8,no=7
			7:[Col_19<9] yes=13,no=14,missing=13
				13:leaf=0.00313727
				14:leaf=0.0372408
			8:[Col_6<3] yes=15,no=16,missing=15
				15:leaf=-0.00552576
				16:leaf=0.139954
		4:[Col_29=c] yes=10,no=9
			9:[Col_4=a] yes=18,no=17
				17:leaf=0.0167387
				18:leaf=-0.0103771
			10:[Col_17=f] yes=20,no=19
				19:leaf=-0.112314
				20:leaf=0.116077
	2:[Col_30<3] yes=5,no=6,missing=5
		5:leaf=-0.195676
		6:[Col_19<4] yes=11,no=12,missing=11
			11:[Col_7<12] yes=21,no=22,missing=21
				21:leaf=0.290989
				22:leaf=-0.0545531
			12:[Col_30<13] yes=23,no=24,missing=23
				23:leaf=-0.139205
				24:leaf=0.162242
booster[116]:
0:[Col_17=b] yes=2,no=1
	1:[Col_8=a] yes=4,no=3
		3:[Col_16<16] yes=7,no=8,missing=7
			7:[Col_18<4] yes=15,no=16,missing=15
				15:leaf=0.00297141
				16:leaf=0.036953
			8:[Col_1<12] yes=17,no=18,missing=17
				17:leaf=0.0135038
				18:leaf=-0.0223715
		4:[Col_1<8] yes=9,no=10,missing=9
			9:[Col_26<20] yes=19,no=20,missing=19
				19:leaf=0.00102638
				20:leaf=0.296162
			10:[Col_16<18] yes=21,no=22,missing=21
				21:leaf=-0.0268609
				22:leaf=0.0380075
	2:[Col_14<37] yes=5,no=6,missing=5
		5:[Col_1<19] yes=11,no=12,missing=11
			11:[Col_22=a] yes=24,no=23
				23:leaf=-0.0458688
				24:leaf=0.0826433
			12:leaf=0.518874
		6:[Col_1<6] yes=13,no=14,missing=13
			13:[Col_7<3] yes=25,no=26,missing=25
				25:leaf=-0.0592283
				26:leaf=0.0827677
			14:[Col_27=d] yes=28,no=27
				27:leaf=-0.0106466
				28:leaf=0.175531
booster[117]:
0:[Col_1<5] yes=1,no=2,missing=1
	1:[Col_16<13] yes=3,no=4,missing=3
		3:[Col_19<10] yes=7,no=8,missing=7
			7:[Col_11=c] yes=16,no=15
				15:leaf=-0.0414685
				16:leaf=-0.00521796
			8:[Col_10<12] yes=17,no=18,missing=17
				17:leaf=-0.0764038
				18:leaf=0.283917
		4:[Col_11=d] yes=10,no=9
			9:[Col_29=c] yes=20,no=19
				19:leaf=0.0077046
				20:leaf=-0.131296
			10:[Col_10<5] yes=21,no=22,missing=21
				21:leaf=0.141013
				22:leaf=0.0181363
	2:[Col_6<2] yes=5,no=6,missing=5
		5:[Col_17=d] yes=12,no=11
			11:[Col_29=c] yes=24,no=23
				23:leaf=-0.00935624
				24:leaf=0.0549574
			12:leaf=0.228767
		6:[Col_8=b] yes=14,no=13
			13:[Col_26<14] yes=25,no=26,missing=25
				25:leaf=0.00975124
				26:leaf=-0.0104264
			14:[Col_19<4] yes=27,no=28,missing=27
				27:leaf=-0.020608
				28:leaf=0.224754
booster[118]:
0:[Col_1<23] yes=1,no=2,missing=1
	1:[Col_16<7] yes=3,no=4,missing=3
		3:[Col_1<17] yes=7,no=8,missing=7
			7:[Col_27=k] yes=16,no=15
				15:leaf=-0.00531469
				16:leaf=0.199922
			8:[Col_7<15] yes=17,no=18,missing=17
				17:leaf=0.0618099
				18:leaf=0.184401
		4:[Col_12=e] yes=10,no=9
			9:[Col_19<11] yes=19,no=20,missing=19
				19:leaf=-0.00272981
				20:leaf=-0.037044
			10:[Col_4=a] yes=22,no=21
				21:leaf=-0.10081
				22:leaf=0.0873993
	2:[Col_15=r] yes=6,no=5
		5:[Col_7<9] yes=11,no=12,missing=11
			11:[Col_16<15] yes=23,no=24,missing=23
				23:leaf=-0.234886
				24:leaf=-0.0263942
			12:[Col_31<8] yes=25,no=26,missing=25
				25:leaf=-0.123449
				26:leaf=0.0477691
		6:[Col_16<19] yes=13,no=14,missing=13
			13:[Col_19<1] yes=27,no=28,missing=27
				27:leaf=-0.0578699
				28:leaf=-0.169557
			14:leaf=-0.388812
booster[119]:
0:[Col_16<26] yes=1,no=2,missing=1
	1:[Col_7<10] yes=3,no=4,missing=3
		3:[Col_28=h] yes=8,no=7
			7:[Col_4=a] yes=16,no=15
				15:leaf=-0.0105646
				16:leaf=0.00551259
			8:[Col_32=a] yes=18,no=17
				17:leaf=-0.061783
				18:leaf=0.603106
		4:[Col_10<5] yes=9,no=10,missing=9
			9:[Col_16<10] yes=19,no=20,missing=19
				19:leaf=-0.0188669
				20:leaf=0.0230218
			10:[Col_7<15] yes=21,no=22,missing=21
				21:leaf=-0.0178353
				22:leaf=0.00144628
	2:[Col_16<27] yes=5,no=6,missing=5
		5:[Col_2<9] yes=11,no=12,missing=11
			11:[Col_31<11] yes=23,no=24,missing=23
				23:leaf=0.151314
				24:leaf=-0.0202866
			12:leaf=0.575949
		6:[Col_26<10] yes=13,no=14,missing=13
			13:[Col_28=a] yes=26,no=25
				25:leaf=-0.156635
				26:leaf=0.0709231
			14:[Col_18<2] yes=27,no=28,missing=27
				27:leaf=0.00443652
				28:leaf=-0.108452
booster[120]:
0:[Col_1<22] yes=1,no=2,missing=1
	1:[Col_26<14] yes=3,no=4,missing=3
		3:[Col_15=b] yes=8,no=7
			7:[Col_10<9] yes=13,no=14,missing=13
				13:leaf=0.0117971
				14:leaf=-0.00111263
			8:[Col_12=d] yes=16,no=15
				15:leaf=-0.011142
				16:leaf=0.158858
		4:[Col_29=c] yes=10,no=9
			9:[Col_11=e] yes=18,no=17
				17:leaf=-0.00978685
				18:leaf=0.0504975
			10:[Col_10<17] yes=19,no=20,missing=19
				19:leaf=-0.165397
				20:leaf=0.114826
	2:[Col_24=a] yes=6,no=5
		5:[Col_15=p] yes=12,no=11
			11:[Col_19<4] yes=21,no=22,missing=21
				21:leaf=-0.00822962
				22:leaf=0.073286
			12:leaf=0.379094
		6:leaf=0.338051
booster[121]:
0:[Col_16<4] yes=1,no=2,missing=1
	1:[Col_29=b] yes=4,no=3
		3:leaf=0.278911
		4:[Col_1<14] yes=7,no=8,missing=7
			7:[Col_20=b] yes=14,no=13
				13:leaf=0.0644844
				14:leaf=-0.142306
			8:[Col_26<10] yes=15,no=16,missing=15
				15:leaf=0.431296
				16:leaf=-0.00396973
	2:[Col_14<6] yes=5,no=6,missing=5
		5:[Col_16<13] yes=9,no=10,missing=9
			9:[Col_7<6] yes=17,no=18,missing=17
				17:leaf=0.0997571
				18:leaf=-0.144565
			10:[Col_26<3] yes=19,no=20,missing=19
				19:leaf=0.309571
				20:leaf=-0.00641516
		6:[Col_14<8] yes=11,no=12,missing=11
			11:[Col_8=c] yes=22,no=21
				21:leaf=0.0337256
				22:leaf=0.525932
